{"sizes":[40,40,40,40,40,40,40,40,40,40,40,40,40,40,40,40,40,40,40,40,40,2],"layers":[{"SPX_Open_1":{},"SPX_Close_1":{},"SPX_High_1":{},"SPX_Low_1":{},"SPX_Open_2":{},"SPX_Close_2":{},"SPX_High_2":{},"SPX_Low_2":{},"SPX_Open_3":{},"SPX_Close_3":{},"SPX_High_3":{},"SPX_Low_3":{},"SPX_Open_4":{},"SPX_Close_4":{},"SPX_High_4":{},"SPX_Low_4":{},"SPX_Open_5":{},"SPX_Close_5":{},"SPX_High_5":{},"SPX_Low_5":{},"SPX_Open_6":{},"SPX_Close_6":{},"SPX_High_6":{},"SPX_Low_6":{},"SPX_Open_7":{},"SPX_Close_7":{},"SPX_High_7":{},"SPX_Low_7":{},"SPX_Open_8":{},"SPX_Close_8":{},"SPX_High_8":{},"SPX_Low_8":{},"SPX_Open_9":{},"SPX_Close_9":{},"SPX_High_9":{},"SPX_Low_9":{},"SPX_Open_10":{},"SPX_Close_10":{},"SPX_High_10":{},"SPX_Low_10":{}},{"0":{"bias":-0.00600007176399231,"weights":{"SPX_Open_1":-0.10256920009851456,"SPX_Close_1":-0.15836957097053528,"SPX_High_1":-0.16511587798595428,"SPX_Low_1":-0.12358807027339935,"SPX_Open_2":0.034617744386196136,"SPX_Close_2":-0.1620115339756012,"SPX_High_2":0.13522569835186005,"SPX_Low_2":-0.0873967856168747,"SPX_Open_3":-0.1842869073152542,"SPX_Close_3":-0.14953535795211792,"SPX_High_3":0.10294803977012634,"SPX_Low_3":0.19871407747268677,"SPX_Open_4":-0.055488139390945435,"SPX_Close_4":-0.19799944758415222,"SPX_High_4":-0.12882964313030243,"SPX_Low_4":0.015247328206896782,"SPX_Open_5":0.18177101016044617,"SPX_Close_5":-0.02502107247710228,"SPX_High_5":0.04554562643170357,"SPX_Low_5":-0.1486234813928604,"SPX_Open_6":0.1796654909849167,"SPX_Close_6":-0.15456058084964752,"SPX_High_6":-0.044674988836050034,"SPX_Low_6":-0.1541803926229477,"SPX_Open_7":0.09014701843261719,"SPX_Close_7":-0.06740794330835342,"SPX_High_7":0.013749904930591583,"SPX_Low_7":-0.021408667787909508,"SPX_Open_8":0.02066795714199543,"SPX_Close_8":-0.033443279564380646,"SPX_High_8":0.1748524159193039,"SPX_Low_8":-0.17090237140655518,"SPX_Open_9":-0.11077777296304703,"SPX_Close_9":-0.16400732100009918,"SPX_High_9":0.11420049518346786,"SPX_Low_9":-0.0465557686984539,"SPX_Open_10":-0.022258860990405083,"SPX_Close_10":0.16354136168956757,"SPX_High_10":0.04594078287482262,"SPX_Low_10":-0.15476687252521515}},"1":{"bias":-0.09909693151712418,"weights":{"SPX_Open_1":-0.15607739984989166,"SPX_Close_1":0.19055461883544922,"SPX_High_1":-0.06258365511894226,"SPX_Low_1":-0.08888230472803116,"SPX_Open_2":0.09374325722455978,"SPX_Close_2":-0.09546371549367905,"SPX_High_2":0.1706981211900711,"SPX_Low_2":0.18302719295024872,"SPX_Open_3":-0.17678751051425934,"SPX_Close_3":0.12338291108608246,"SPX_High_3":0.02761012688279152,"SPX_Low_3":-0.11614711582660675,"SPX_Open_4":-0.16541872918605804,"SPX_Close_4":0.13690920174121857,"SPX_High_4":-0.0632876604795456,"SPX_Low_4":0.04676666855812073,"SPX_Open_5":-0.18049213290214539,"SPX_Close_5":0.03953714668750763,"SPX_High_5":-0.06687279790639877,"SPX_Low_5":-0.020407116040587425,"SPX_Open_6":-0.0365595668554306,"SPX_Close_6":-0.17731356620788574,"SPX_High_6":-0.07467178255319595,"SPX_Low_6":-0.19254973530769348,"SPX_Open_7":-0.001525298459455371,"SPX_Close_7":-0.041650958359241486,"SPX_High_7":0.07951772958040237,"SPX_Low_7":0.14786048233509064,"SPX_Open_8":-0.12975701689720154,"SPX_Close_8":-0.15730272233486176,"SPX_High_8":-0.11707939952611923,"SPX_Low_8":-0.1428646594285965,"SPX_Open_9":0.04375136271119118,"SPX_Close_9":-0.1282922923564911,"SPX_High_9":-0.0022650808095932007,"SPX_Low_9":0.04600943624973297,"SPX_Open_10":-0.0980062186717987,"SPX_Close_10":-0.09379465132951736,"SPX_High_10":-0.023679807782173157,"SPX_Low_10":-0.1318868100643158}},"2":{"bias":0.19376768171787262,"weights":{"SPX_Open_1":0.018067827448248863,"SPX_Close_1":0.06241479143500328,"SPX_High_1":-0.1199878603219986,"SPX_Low_1":-0.041826680302619934,"SPX_Open_2":0.025347508490085602,"SPX_Close_2":-0.05879279598593712,"SPX_High_2":0.04918963089585304,"SPX_Low_2":-0.12100134789943695,"SPX_Open_3":0.017703084275126457,"SPX_Close_3":-0.17055951058864594,"SPX_High_3":0.03286643326282501,"SPX_Low_3":0.06693755090236664,"SPX_Open_4":0.10613860934972763,"SPX_Close_4":0.08778132498264313,"SPX_High_4":-0.16975037753582,"SPX_Low_4":-0.03715993091464043,"SPX_Open_5":-0.013505695387721062,"SPX_Close_5":0.14963792264461517,"SPX_High_5":-0.17774254083633423,"SPX_Low_5":0.008178344927728176,"SPX_Open_6":-0.059971485286951065,"SPX_Close_6":0.039949145168066025,"SPX_High_6":0.1229952871799469,"SPX_Low_6":0.04583849012851715,"SPX_Open_7":0.09685654193162918,"SPX_Close_7":-0.03077143244445324,"SPX_High_7":0.195155531167984,"SPX_Low_7":0.1868581473827362,"SPX_Open_8":-0.15429969131946564,"SPX_Close_8":-0.15931940078735352,"SPX_High_8":-0.14179672300815582,"SPX_Low_8":-0.02040465734899044,"SPX_Open_9":0.03860553726553917,"SPX_Close_9":0.1152837797999382,"SPX_High_9":0.05518665164709091,"SPX_Low_9":0.15079724788665771,"SPX_Open_10":0.07102513313293457,"SPX_Close_10":0.16298015415668488,"SPX_High_10":-0.1510743498802185,"SPX_Low_10":0.02561137266457081}},"3":{"bias":0.17796632647514343,"weights":{"SPX_Open_1":0.05267072468996048,"SPX_Close_1":0.10724954307079315,"SPX_High_1":-0.020509380847215652,"SPX_Low_1":0.02645316906273365,"SPX_Open_2":-0.147466242313385,"SPX_Close_2":-0.011660061776638031,"SPX_High_2":0.15038016438484192,"SPX_Low_2":0.024536756798624992,"SPX_Open_3":-0.026691770181059837,"SPX_Close_3":0.0053157988004386425,"SPX_High_3":0.01823875494301319,"SPX_Low_3":-0.08112037926912308,"SPX_Open_4":0.03505999222397804,"SPX_Close_4":0.09010960161685944,"SPX_High_4":0.02393358387053013,"SPX_Low_4":0.05983002483844757,"SPX_Open_5":0.037336863577365875,"SPX_Close_5":0.10151118785142899,"SPX_High_5":-0.19803088903427124,"SPX_Low_5":-0.15502320230007172,"SPX_Open_6":-0.06622494012117386,"SPX_Close_6":0.1491054743528366,"SPX_High_6":-0.037873271852731705,"SPX_Low_6":-0.07148266583681107,"SPX_Open_7":-0.0842888131737709,"SPX_Close_7":-0.1222902238368988,"SPX_High_7":0.08972176164388657,"SPX_Low_7":0.14261280000209808,"SPX_Open_8":-0.005286401603370905,"SPX_Close_8":0.08839622139930725,"SPX_High_8":-0.08487274497747421,"SPX_Low_8":0.03128139674663544,"SPX_Open_9":0.07014429569244385,"SPX_Close_9":0.10756941139698029,"SPX_High_9":-0.10896041989326477,"SPX_Low_9":0.10634694993495941,"SPX_Open_10":-0.1919027864933014,"SPX_Close_10":-0.005369723308831453,"SPX_High_10":-0.05286869406700134,"SPX_Low_10":-0.1348574161529541}},"4":{"bias":-0.029761390760540962,"weights":{"SPX_Open_1":-0.16584347188472748,"SPX_Close_1":0.0656052902340889,"SPX_High_1":0.19530096650123596,"SPX_Low_1":0.10518110543489456,"SPX_Open_2":-0.18368658423423767,"SPX_Close_2":-0.10253658145666122,"SPX_High_2":0.1397314965724945,"SPX_Low_2":-0.1162603497505188,"SPX_Open_3":-0.061941877007484436,"SPX_Close_3":-0.0988093763589859,"SPX_High_3":0.15259627997875214,"SPX_Low_3":-0.17117010056972504,"SPX_Open_4":-0.0867646336555481,"SPX_Close_4":0.03342985361814499,"SPX_High_4":0.06206462159752846,"SPX_Low_4":-0.18430718779563904,"SPX_Open_5":0.1046677827835083,"SPX_Close_5":-0.16954070329666138,"SPX_High_5":-0.07112386077642441,"SPX_Low_5":-0.041156571358442307,"SPX_Open_6":-0.08740565925836563,"SPX_Close_6":0.06617748737335205,"SPX_High_6":-0.06762873381376266,"SPX_Low_6":-0.02978813275694847,"SPX_Open_7":-0.11761178821325302,"SPX_Close_7":-0.016777029260993004,"SPX_High_7":0.10020353645086288,"SPX_Low_7":0.07397327572107315,"SPX_Open_8":-0.020962709560990334,"SPX_Close_8":0.13085079193115234,"SPX_High_8":0.04370485618710518,"SPX_Low_8":-0.09743189811706543,"SPX_Open_9":-0.17028680443763733,"SPX_Close_9":0.0015184794319793582,"SPX_High_9":-0.1297057718038559,"SPX_Low_9":-0.0848638117313385,"SPX_Open_10":0.18100832402706146,"SPX_Close_10":-0.17744185030460358,"SPX_High_10":-0.16236615180969238,"SPX_Low_10":0.16228313744068146}},"5":{"bias":-0.17182357609272003,"weights":{"SPX_Open_1":-0.08084441721439362,"SPX_Close_1":-0.0856238454580307,"SPX_High_1":-0.13142336905002594,"SPX_Low_1":0.053739916533231735,"SPX_Open_2":0.0275010634213686,"SPX_Close_2":-0.1325511336326599,"SPX_High_2":0.10300028324127197,"SPX_Low_2":-0.12718325853347778,"SPX_Open_3":-0.09655334055423737,"SPX_Close_3":-0.029081011191010475,"SPX_High_3":-0.17815160751342773,"SPX_Low_3":-0.18984559178352356,"SPX_Open_4":0.1353825032711029,"SPX_Close_4":0.07256071269512177,"SPX_High_4":-0.14449656009674072,"SPX_Low_4":-0.06842757016420364,"SPX_Open_5":0.11824595928192139,"SPX_Close_5":-0.07832074910402298,"SPX_High_5":0.058817919343709946,"SPX_Low_5":0.15460310876369476,"SPX_Open_6":-0.061404794454574585,"SPX_Close_6":0.08605428040027618,"SPX_High_6":-0.08548084646463394,"SPX_Low_6":-0.13273097574710846,"SPX_Open_7":-0.061604298651218414,"SPX_Close_7":0.033016011118888855,"SPX_High_7":0.06178600341081619,"SPX_Low_7":0.1401883065700531,"SPX_Open_8":0.1868179589509964,"SPX_Close_8":-0.15411438047885895,"SPX_High_8":-0.05231243744492531,"SPX_Low_8":0.1530338078737259,"SPX_Open_9":-0.13421094417572021,"SPX_Close_9":0.07930171489715576,"SPX_High_9":-0.13505379855632782,"SPX_Low_9":0.012725547887384892,"SPX_Open_10":0.1038576290011406,"SPX_Close_10":-0.0026002787053585052,"SPX_High_10":0.11089775711297989,"SPX_Low_10":0.05860734358429909}},"6":{"bias":-0.11804459989070892,"weights":{"SPX_Open_1":-0.09836525470018387,"SPX_Close_1":-0.10615888237953186,"SPX_High_1":-0.06632031500339508,"SPX_Low_1":-0.08042220026254654,"SPX_Open_2":0.1691700965166092,"SPX_Close_2":-0.1292113959789276,"SPX_High_2":0.14611291885375977,"SPX_Low_2":-0.1475154459476471,"SPX_Open_3":-0.05342967063188553,"SPX_Close_3":-0.15412071347236633,"SPX_High_3":0.19015640020370483,"SPX_Low_3":0.15045757591724396,"SPX_Open_4":-0.15070033073425293,"SPX_Close_4":-0.1089068055152893,"SPX_High_4":-0.16462959349155426,"SPX_Low_4":0.10550203174352646,"SPX_Open_5":0.09521987289190292,"SPX_Close_5":0.11868270486593246,"SPX_High_5":0.07984446734189987,"SPX_Low_5":-0.17978565394878387,"SPX_Open_6":0.08357176929712296,"SPX_Close_6":0.024839172139763832,"SPX_High_6":-0.014128146693110466,"SPX_Low_6":0.15403324365615845,"SPX_Open_7":-0.10375053435564041,"SPX_Close_7":0.16878953576087952,"SPX_High_7":-0.17930565774440765,"SPX_Low_7":0.11257024854421616,"SPX_Open_8":0.010722888633608818,"SPX_Close_8":-0.016835391521453857,"SPX_High_8":0.032126352190971375,"SPX_Low_8":-0.021389789879322052,"SPX_Open_9":0.09012419730424881,"SPX_Close_9":0.05004594102501869,"SPX_High_9":0.15954537689685822,"SPX_Low_9":0.11576101928949356,"SPX_Open_10":0.011008437722921371,"SPX_Close_10":0.071349136531353,"SPX_High_10":-0.0648387223482132,"SPX_Low_10":0.059751518070697784}},"7":{"bias":0.13946886360645294,"weights":{"SPX_Open_1":-0.05863772705197334,"SPX_Close_1":-0.19345898926258087,"SPX_High_1":0.030056515708565712,"SPX_Low_1":0.06811200082302094,"SPX_Open_2":-0.14792904257774353,"SPX_Close_2":0.1555856466293335,"SPX_High_2":-0.03392617031931877,"SPX_Low_2":0.05138745903968811,"SPX_Open_3":0.18632474541664124,"SPX_Close_3":-0.0765858143568039,"SPX_High_3":0.017398128286004066,"SPX_Low_3":-0.04979020729660988,"SPX_Open_4":-0.17509694397449493,"SPX_Close_4":-0.08151073008775711,"SPX_High_4":-0.15635550022125244,"SPX_Low_4":0.1309632956981659,"SPX_Open_5":-0.023751797154545784,"SPX_Close_5":-0.05001077800989151,"SPX_High_5":0.09559524059295654,"SPX_Low_5":-0.06690426915884018,"SPX_Open_6":-0.17575617134571075,"SPX_Close_6":-0.03670019283890724,"SPX_High_6":0.00727576669305563,"SPX_Low_6":-0.15687938034534454,"SPX_Open_7":-0.07839089632034302,"SPX_Close_7":0.13618266582489014,"SPX_High_7":-0.02112293615937233,"SPX_Low_7":-0.16768185794353485,"SPX_Open_8":0.09003228694200516,"SPX_Close_8":-0.03429347276687622,"SPX_High_8":-0.1356411874294281,"SPX_Low_8":-0.19463084638118744,"SPX_Open_9":-0.18782295286655426,"SPX_Close_9":0.03473212942481041,"SPX_High_9":0.11696001887321472,"SPX_Low_9":-0.010063689202070236,"SPX_Open_10":0.18291713297367096,"SPX_Close_10":-0.11330219358205795,"SPX_High_10":0.09015204757452011,"SPX_Low_10":-0.16165177524089813}},"8":{"bias":-0.10647545754909515,"weights":{"SPX_Open_1":-0.058860015124082565,"SPX_Close_1":0.08384089171886444,"SPX_High_1":0.11141296476125717,"SPX_Low_1":-0.1693761646747589,"SPX_Open_2":-0.06626550853252411,"SPX_Close_2":-0.010974491015076637,"SPX_High_2":0.07155754417181015,"SPX_Low_2":-0.19609041512012482,"SPX_Open_3":0.06355462223291397,"SPX_Close_3":-0.03855177015066147,"SPX_High_3":-0.09649364650249481,"SPX_Low_3":-0.07174374908208847,"SPX_Open_4":0.08376467972993851,"SPX_Close_4":-0.027599547058343887,"SPX_High_4":-0.0895673930644989,"SPX_Low_4":-0.11333226412534714,"SPX_Open_5":-0.15151798725128174,"SPX_Close_5":0.16514486074447632,"SPX_High_5":-0.026785297319293022,"SPX_Low_5":-0.03516869992017746,"SPX_Open_6":0.028779439628124237,"SPX_Close_6":0.06965133547782898,"SPX_High_6":-0.15088105201721191,"SPX_Low_6":0.14676706492900848,"SPX_Open_7":-0.0435737706720829,"SPX_Close_7":-0.11452510207891464,"SPX_High_7":0.06979537010192871,"SPX_Low_7":-0.0789259523153305,"SPX_Open_8":0.02026512287557125,"SPX_Close_8":-0.012688841670751572,"SPX_High_8":0.05586234852671623,"SPX_Low_8":-0.008396640419960022,"SPX_Open_9":0.04411550983786583,"SPX_Close_9":0.003266210202127695,"SPX_High_9":0.19982890784740448,"SPX_Low_9":-0.040102239698171616,"SPX_Open_10":-0.17763783037662506,"SPX_Close_10":0.10227807611227036,"SPX_High_10":0.14063362777233124,"SPX_Low_10":0.04392750561237335}},"9":{"bias":-0.12084770947694778,"weights":{"SPX_Open_1":0.053117841482162476,"SPX_Close_1":-0.19752644002437592,"SPX_High_1":0.05383672937750816,"SPX_Low_1":0.13098575174808502,"SPX_Open_2":-0.08130873739719391,"SPX_Close_2":0.053567420691251755,"SPX_High_2":0.1580493450164795,"SPX_Low_2":-0.12957794964313507,"SPX_Open_3":0.10607194900512695,"SPX_Close_3":0.13274551928043365,"SPX_High_3":0.06629537045955658,"SPX_Low_3":0.08011531084775925,"SPX_Open_4":0.16456560790538788,"SPX_Close_4":-0.04667776823043823,"SPX_High_4":0.1763739287853241,"SPX_Low_4":-0.07492095232009888,"SPX_Open_5":-0.0735965296626091,"SPX_Close_5":0.17050184309482574,"SPX_High_5":0.08145737648010254,"SPX_Low_5":0.040957011282444,"SPX_Open_6":-0.10160035640001297,"SPX_Close_6":-0.09634237736463547,"SPX_High_6":0.09407080709934235,"SPX_Low_6":0.1523265838623047,"SPX_Open_7":-0.15030664205551147,"SPX_Close_7":0.12749701738357544,"SPX_High_7":-0.08276574313640594,"SPX_Low_7":0.04535708576440811,"SPX_Open_8":-0.17311221361160278,"SPX_Close_8":0.06406546384096146,"SPX_High_8":-0.14223553240299225,"SPX_Low_8":-0.18557560443878174,"SPX_Open_9":0.0627516508102417,"SPX_Close_9":0.10579054057598114,"SPX_High_9":-0.11805909126996994,"SPX_Low_9":0.12059436738491058,"SPX_Open_10":-0.055940739810466766,"SPX_Close_10":-0.09367280453443527,"SPX_High_10":-0.04536402225494385,"SPX_Low_10":0.020676501095294952}},"10":{"bias":0.13140854239463806,"weights":{"SPX_Open_1":0.09383928030729294,"SPX_Close_1":0.1970870941877365,"SPX_High_1":0.09040498733520508,"SPX_Low_1":-0.05779671296477318,"SPX_Open_2":-0.044240593910217285,"SPX_Close_2":0.11160759627819061,"SPX_High_2":-0.09148402512073517,"SPX_Low_2":-0.0694151520729065,"SPX_Open_3":-0.16305802762508392,"SPX_Close_3":-0.1384262889623642,"SPX_High_3":0.16523560881614685,"SPX_Low_3":0.18121883273124695,"SPX_Open_4":0.1612241268157959,"SPX_Close_4":-0.021770792081952095,"SPX_High_4":0.19281169772148132,"SPX_Low_4":-0.11106645315885544,"SPX_Open_5":0.08774930983781815,"SPX_Close_5":-0.12078997492790222,"SPX_High_5":0.14916354417800903,"SPX_Low_5":-0.14695622026920319,"SPX_Open_6":0.04513189196586609,"SPX_Close_6":0.06902509182691574,"SPX_High_6":0.0750163346529007,"SPX_Low_6":-0.009175281971693039,"SPX_Open_7":-0.05218922719359398,"SPX_Close_7":-0.1109401136636734,"SPX_High_7":0.19200748205184937,"SPX_Low_7":0.08825356513261795,"SPX_Open_8":-0.018556823953986168,"SPX_Close_8":-0.14719782769680023,"SPX_High_8":-0.1610245555639267,"SPX_Low_8":-0.19567574560642242,"SPX_Open_9":0.16783036291599274,"SPX_Close_9":0.02673470787703991,"SPX_High_9":-0.007208680734038353,"SPX_Low_9":-0.011095448397099972,"SPX_Open_10":0.04365713894367218,"SPX_Close_10":-0.10488978028297424,"SPX_High_10":0.04491335153579712,"SPX_Low_10":0.06531872600317001}},"11":{"bias":0.18318767845630646,"weights":{"SPX_Open_1":0.12158694118261337,"SPX_Close_1":0.12216566503047943,"SPX_High_1":0.05706842616200447,"SPX_Low_1":-0.1642741858959198,"SPX_Open_2":0.16653430461883545,"SPX_Close_2":-0.09383183717727661,"SPX_High_2":-0.08315525949001312,"SPX_Low_2":0.06332014501094818,"SPX_Open_3":0.15406274795532227,"SPX_Close_3":0.19563411176204681,"SPX_High_3":0.10758437216281891,"SPX_Low_3":-0.18356750905513763,"SPX_Open_4":-0.033561866730451584,"SPX_Close_4":-0.1434151530265808,"SPX_High_4":0.1695917397737503,"SPX_Low_4":0.07293979823589325,"SPX_Open_5":-0.18364980816841125,"SPX_Close_5":-0.05898795276880264,"SPX_High_5":-0.0206643994897604,"SPX_Low_5":-0.11812862753868103,"SPX_Open_6":-0.06869110465049744,"SPX_Close_6":0.012242789380252361,"SPX_High_6":0.09384286403656006,"SPX_Low_6":0.1742936074733734,"SPX_Open_7":-0.08850769698619843,"SPX_Close_7":0.07326874881982803,"SPX_High_7":0.06410308927297592,"SPX_Low_7":0.12855519354343414,"SPX_Open_8":-0.1701756715774536,"SPX_Close_8":-0.12900219857692719,"SPX_High_8":-0.0028439878951758146,"SPX_Low_8":-0.11489302664995193,"SPX_Open_9":0.17354822158813477,"SPX_Close_9":-0.056162092834711075,"SPX_High_9":-0.09483018517494202,"SPX_Low_9":-0.059782251715660095,"SPX_Open_10":0.03412831202149391,"SPX_Close_10":-0.08437292277812958,"SPX_High_10":0.16625148057937622,"SPX_Low_10":-0.1595243513584137}},"12":{"bias":-0.08383362740278244,"weights":{"SPX_Open_1":0.18062858283519745,"SPX_Close_1":0.033580563962459564,"SPX_High_1":0.15931078791618347,"SPX_Low_1":0.07649005949497223,"SPX_Open_2":-0.08963841944932938,"SPX_Close_2":-0.0440228171646595,"SPX_High_2":-0.09235461056232452,"SPX_Low_2":0.11550211906433105,"SPX_Open_3":0.00027113204123452306,"SPX_Close_3":0.016645371913909912,"SPX_High_3":-0.08861202001571655,"SPX_Low_3":0.12867699563503265,"SPX_Open_4":-0.011801055632531643,"SPX_Close_4":-0.15144464373588562,"SPX_High_4":0.10100577771663666,"SPX_Low_4":0.022812573239207268,"SPX_Open_5":-0.038371507078409195,"SPX_Close_5":0.14301791787147522,"SPX_High_5":0.037891682237386703,"SPX_Low_5":0.05420779436826706,"SPX_Open_6":-0.06266091018915176,"SPX_Close_6":0.1789364367723465,"SPX_High_6":-0.08616819977760315,"SPX_Low_6":0.13124915957450867,"SPX_Open_7":-0.1526549607515335,"SPX_Close_7":-0.05916459113359451,"SPX_High_7":0.012743940576910973,"SPX_Low_7":-0.06967270374298096,"SPX_Open_8":0.14628911018371582,"SPX_Close_8":0.1441497504711151,"SPX_High_8":0.14772748947143555,"SPX_Low_8":-0.13716095685958862,"SPX_Open_9":-0.03232085332274437,"SPX_Close_9":0.13058951497077942,"SPX_High_9":0.13638027012348175,"SPX_Low_9":-0.1741439253091812,"SPX_Open_10":0.14282356202602386,"SPX_Close_10":0.08282768726348877,"SPX_High_10":0.12899602949619293,"SPX_Low_10":-0.1642359495162964}},"13":{"bias":-0.06347785145044327,"weights":{"SPX_Open_1":-0.08889319747686386,"SPX_Close_1":-0.13951174914836884,"SPX_High_1":0.18293273448944092,"SPX_Low_1":-0.18924565613269806,"SPX_Open_2":-0.12443505227565765,"SPX_Close_2":-0.14881524443626404,"SPX_High_2":-0.03728983551263809,"SPX_Low_2":-0.12552207708358765,"SPX_Open_3":-0.0461052842438221,"SPX_Close_3":0.06854910403490067,"SPX_High_3":0.04510456696152687,"SPX_Low_3":0.047889500856399536,"SPX_Open_4":-0.05889466404914856,"SPX_Close_4":0.186440572142601,"SPX_High_4":-0.1713501513004303,"SPX_Low_4":0.06222185492515564,"SPX_Open_5":-0.13548210263252258,"SPX_Close_5":0.0470581091940403,"SPX_High_5":-0.048881348222494125,"SPX_Low_5":0.12239433079957962,"SPX_Open_6":0.12094824016094208,"SPX_Close_6":-0.15630969405174255,"SPX_High_6":0.1420363038778305,"SPX_Low_6":0.012786258943378925,"SPX_Open_7":0.0048530492931604385,"SPX_Close_7":0.19658403098583221,"SPX_High_7":0.14197371900081635,"SPX_Low_7":-0.19118179380893707,"SPX_Open_8":-0.04602161794900894,"SPX_Close_8":-0.06643342226743698,"SPX_High_8":-0.0974494218826294,"SPX_Low_8":0.024050360545516014,"SPX_Open_9":0.05090901628136635,"SPX_Close_9":-0.031670842319726944,"SPX_High_9":0.08527562767267227,"SPX_Low_9":0.13841691613197327,"SPX_Open_10":-0.09779714792966843,"SPX_Close_10":0.04152870178222656,"SPX_High_10":0.032703034579753876,"SPX_Low_10":-0.17554211616516113}},"14":{"bias":0.1604803055524826,"weights":{"SPX_Open_1":0.17685067653656006,"SPX_Close_1":0.029902812093496323,"SPX_High_1":-0.008618016727268696,"SPX_Low_1":0.10870066285133362,"SPX_Open_2":-0.00510898744687438,"SPX_Close_2":0.07360530644655228,"SPX_High_2":0.02208344265818596,"SPX_Low_2":0.04736369848251343,"SPX_Open_3":-0.050233013927936554,"SPX_Close_3":-0.13092570006847382,"SPX_High_3":0.11997183412313461,"SPX_Low_3":0.1556359827518463,"SPX_Open_4":0.035816702991724014,"SPX_Close_4":-0.15881101787090302,"SPX_High_4":-0.11011959612369537,"SPX_Low_4":-0.1425386369228363,"SPX_Open_5":0.07581523060798645,"SPX_Close_5":-0.09609871357679367,"SPX_High_5":0.0837382897734642,"SPX_Low_5":0.15901079773902893,"SPX_Open_6":0.16557887196540833,"SPX_Close_6":-0.09086159616708755,"SPX_High_6":0.07112865149974823,"SPX_Low_6":0.026055119931697845,"SPX_Open_7":-0.012870822101831436,"SPX_Close_7":-0.023025913164019585,"SPX_High_7":-0.14534005522727966,"SPX_Low_7":0.16424816846847534,"SPX_Open_8":-0.15829168260097504,"SPX_Close_8":-0.10585862398147583,"SPX_High_8":0.11063765734434128,"SPX_Low_8":0.07888609170913696,"SPX_Open_9":0.1300821602344513,"SPX_Close_9":-0.10215257108211517,"SPX_High_9":0.009600182995200157,"SPX_Low_9":-0.04924383759498596,"SPX_Open_10":0.19814597070217133,"SPX_Close_10":0.034890271723270416,"SPX_High_10":-0.12640199065208435,"SPX_Low_10":-0.05501238629221916}},"15":{"bias":0.08679427951574326,"weights":{"SPX_Open_1":0.0806104838848114,"SPX_Close_1":0.09793969988822937,"SPX_High_1":-0.01406929548829794,"SPX_Low_1":0.05021907761693001,"SPX_Open_2":-0.029687704518437386,"SPX_Close_2":-0.11577320098876953,"SPX_High_2":0.12663276493549347,"SPX_Low_2":-0.1600695550441742,"SPX_Open_3":-0.08189155906438828,"SPX_Close_3":0.058411404490470886,"SPX_High_3":-0.04021627828478813,"SPX_Low_3":0.030667509883642197,"SPX_Open_4":-0.09602538496255875,"SPX_Close_4":0.19710713624954224,"SPX_High_4":-0.1437477320432663,"SPX_Low_4":-0.1904963105916977,"SPX_Open_5":-0.13629426062107086,"SPX_Close_5":-0.07004878669977188,"SPX_High_5":0.1384112685918808,"SPX_Low_5":0.12036710977554321,"SPX_Open_6":-0.12636183202266693,"SPX_Close_6":-0.14023366570472717,"SPX_High_6":-0.029371624812483788,"SPX_Low_6":0.04953765124082565,"SPX_Open_7":0.11517482995986938,"SPX_Close_7":0.11518805474042892,"SPX_High_7":-0.012741114012897015,"SPX_Low_7":0.07386517524719238,"SPX_Open_8":-0.12758417427539825,"SPX_Close_8":-0.12225013971328735,"SPX_High_8":-0.12298726290464401,"SPX_Low_8":0.14985470473766327,"SPX_Open_9":0.12773896753787994,"SPX_Close_9":-0.04844873398542404,"SPX_High_9":0.11939165741205215,"SPX_Low_9":-0.18186256289482117,"SPX_Open_10":0.13596902787685394,"SPX_Close_10":0.15473291277885437,"SPX_High_10":-0.04125111922621727,"SPX_Low_10":-0.013622000813484192}},"16":{"bias":0.16315016150474548,"weights":{"SPX_Open_1":-0.05391939729452133,"SPX_Close_1":0.12806788086891174,"SPX_High_1":0.02310624159872532,"SPX_Low_1":-0.02494620345532894,"SPX_Open_2":-0.14665432274341583,"SPX_Close_2":-0.1091998890042305,"SPX_High_2":0.04969518259167671,"SPX_Low_2":0.1287144422531128,"SPX_Open_3":-0.07812495529651642,"SPX_Close_3":0.14705759286880493,"SPX_High_3":0.04797053709626198,"SPX_Low_3":0.018338289111852646,"SPX_Open_4":-0.1592070609331131,"SPX_Close_4":0.1944558322429657,"SPX_High_4":0.10224486142396927,"SPX_Low_4":0.037121422588825226,"SPX_Open_5":0.0521388053894043,"SPX_Close_5":0.05624106153845787,"SPX_High_5":-0.09437922388315201,"SPX_Low_5":-0.14671999216079712,"SPX_Open_6":0.044251203536987305,"SPX_Close_6":-0.009926234371960163,"SPX_High_6":-0.18727584183216095,"SPX_Low_6":-0.016254253685474396,"SPX_Open_7":-0.17963100969791412,"SPX_Close_7":0.12155751138925552,"SPX_High_7":-0.11697077751159668,"SPX_Low_7":0.19553036987781525,"SPX_Open_8":-0.028015296906232834,"SPX_Close_8":0.17979790270328522,"SPX_High_8":-0.1806437224149704,"SPX_Low_8":0.06617662310600281,"SPX_Open_9":-0.06579480320215225,"SPX_Close_9":-0.08962704241275787,"SPX_High_9":-0.10201328992843628,"SPX_Low_9":-0.012404536828398705,"SPX_Open_10":0.004401720594614744,"SPX_Close_10":-0.009356236085295677,"SPX_High_10":0.1084180474281311,"SPX_Low_10":-0.020273171365261078}},"17":{"bias":0.14735591411590576,"weights":{"SPX_Open_1":0.0098960492759943,"SPX_Close_1":-0.05305225029587746,"SPX_High_1":-0.03743068128824234,"SPX_Low_1":0.09346292167901993,"SPX_Open_2":-0.07270252704620361,"SPX_Close_2":-0.03527982160449028,"SPX_High_2":-0.008022773079574108,"SPX_Low_2":-0.02646811120212078,"SPX_Open_3":0.15438665449619293,"SPX_Close_3":-0.10544835776090622,"SPX_High_3":-0.11364226788282394,"SPX_Low_3":0.0073120384477078915,"SPX_Open_4":-0.14916779100894928,"SPX_Close_4":-0.0016045639058575034,"SPX_High_4":-0.04217122867703438,"SPX_Low_4":-0.0037508297245949507,"SPX_Open_5":0.0020311642438173294,"SPX_Close_5":0.03444001451134682,"SPX_High_5":-0.193827286362648,"SPX_Low_5":-0.004028181545436382,"SPX_Open_6":0.0724123865365982,"SPX_Close_6":0.1091342493891716,"SPX_High_6":-0.03400764614343643,"SPX_Low_6":-0.07662525773048401,"SPX_Open_7":-0.00742147583514452,"SPX_Close_7":-0.09439976513385773,"SPX_High_7":0.003377138637006283,"SPX_Low_7":-0.028845706954598427,"SPX_Open_8":0.11831856518983841,"SPX_Close_8":-0.12582851946353912,"SPX_High_8":-0.16283230483531952,"SPX_Low_8":-0.0022595275659114122,"SPX_Open_9":0.12096584588289261,"SPX_Close_9":0.1472434252500534,"SPX_High_9":-0.19931234419345856,"SPX_Low_9":0.049470819532871246,"SPX_Open_10":0.023623516783118248,"SPX_Close_10":0.03684237226843834,"SPX_High_10":-0.19257964193820953,"SPX_Low_10":0.11959879100322723}},"18":{"bias":-0.043945249170064926,"weights":{"SPX_Open_1":0.1684437394142151,"SPX_Close_1":0.1698794811964035,"SPX_High_1":0.126109778881073,"SPX_Low_1":0.10309095680713654,"SPX_Open_2":0.07760412991046906,"SPX_Close_2":-0.09271730482578278,"SPX_High_2":0.08971845358610153,"SPX_Low_2":0.19826439023017883,"SPX_Open_3":0.04890478402376175,"SPX_Close_3":-0.17049162089824677,"SPX_High_3":-0.19701258838176727,"SPX_Low_3":-0.06915868818759918,"SPX_Open_4":-0.16497907042503357,"SPX_Close_4":0.11664994060993195,"SPX_High_4":-0.042309343814849854,"SPX_Low_4":-0.0034246051218360662,"SPX_Open_5":0.05867241695523262,"SPX_Close_5":0.07288424670696259,"SPX_High_5":-0.09796794503927231,"SPX_Low_5":-0.10502415895462036,"SPX_Open_6":-0.07894505560398102,"SPX_Close_6":0.1672152280807495,"SPX_High_6":0.17978578805923462,"SPX_Low_6":-0.1486750990152359,"SPX_Open_7":-0.1896963268518448,"SPX_Close_7":0.10402273386716843,"SPX_High_7":0.058899372816085815,"SPX_Low_7":0.05924023315310478,"SPX_Open_8":0.006888032890856266,"SPX_Close_8":0.08123224228620529,"SPX_High_8":-0.016130054369568825,"SPX_Low_8":-0.11113829910755157,"SPX_Open_9":0.16633470356464386,"SPX_Close_9":-0.1021614596247673,"SPX_High_9":0.04090353474020958,"SPX_Low_9":-0.09118691086769104,"SPX_Open_10":-0.16034895181655884,"SPX_Close_10":-0.04972594976425171,"SPX_High_10":-0.057066433131694794,"SPX_Low_10":0.026592286303639412}},"19":{"bias":0.16875974833965302,"weights":{"SPX_Open_1":-0.07953769713640213,"SPX_Close_1":-0.09651600569486618,"SPX_High_1":0.04764740914106369,"SPX_Low_1":0.03905412182211876,"SPX_Open_2":0.13381223380565643,"SPX_Close_2":-0.07804150879383087,"SPX_High_2":0.06743932515382767,"SPX_Low_2":0.028842376545071602,"SPX_Open_3":-0.19343656301498413,"SPX_Close_3":-0.18386217951774597,"SPX_High_3":-0.042716484516859055,"SPX_Low_3":-0.11473849415779114,"SPX_Open_4":0.13308823108673096,"SPX_Close_4":0.013396569527685642,"SPX_High_4":-0.08353056758642197,"SPX_Low_4":0.013957752846181393,"SPX_Open_5":-0.10634513199329376,"SPX_Close_5":-0.14493943750858307,"SPX_High_5":0.13777035474777222,"SPX_Low_5":-0.07162973284721375,"SPX_Open_6":0.0003777046222239733,"SPX_Close_6":0.026152193546295166,"SPX_High_6":-0.12898768484592438,"SPX_Low_6":-0.05177288502454758,"SPX_Open_7":-0.14394047856330872,"SPX_Close_7":0.08233331888914108,"SPX_High_7":0.001171402633190155,"SPX_Low_7":-0.11903500556945801,"SPX_Open_8":-0.04075542092323303,"SPX_Close_8":-0.182045578956604,"SPX_High_8":0.1610865443944931,"SPX_Low_8":0.19501253962516785,"SPX_Open_9":0.03395882248878479,"SPX_Close_9":-0.04225258529186249,"SPX_High_9":-0.03164665028452873,"SPX_Low_9":0.07916726171970367,"SPX_Open_10":0.08315665274858475,"SPX_Close_10":-0.16861648857593536,"SPX_High_10":-0.1337144523859024,"SPX_Low_10":0.14858651161193848}},"20":{"bias":0.04799361526966095,"weights":{"SPX_Open_1":-0.13691125810146332,"SPX_Close_1":0.0015574201242998242,"SPX_High_1":0.06497464329004288,"SPX_Low_1":-0.01266453880816698,"SPX_Open_2":-0.1560291349887848,"SPX_Close_2":-0.07045372575521469,"SPX_High_2":-0.16314786672592163,"SPX_Low_2":0.16910560429096222,"SPX_Open_3":0.14872604608535767,"SPX_Close_3":-0.03155763819813728,"SPX_High_3":-0.10151088237762451,"SPX_Low_3":-0.09775661677122116,"SPX_Open_4":-0.0902356505393982,"SPX_Close_4":0.14942631125450134,"SPX_High_4":-0.17597806453704834,"SPX_Low_4":0.09657995402812958,"SPX_Open_5":-0.0228002667427063,"SPX_Close_5":0.16355262696743011,"SPX_High_5":0.06933361291885376,"SPX_Low_5":0.08062424510717392,"SPX_Open_6":0.043615080416202545,"SPX_Close_6":-0.029953276738524437,"SPX_High_6":0.0977788120508194,"SPX_Low_6":0.1338244378566742,"SPX_Open_7":0.13324669003486633,"SPX_Close_7":0.16158175468444824,"SPX_High_7":0.13399843871593475,"SPX_Low_7":-0.19800223410129547,"SPX_Open_8":0.12540178000926971,"SPX_Close_8":0.06518580764532089,"SPX_High_8":0.16442978382110596,"SPX_Low_8":0.10354921966791153,"SPX_Open_9":-0.1143849790096283,"SPX_Close_9":0.18379659950733185,"SPX_High_9":0.00697943102568388,"SPX_Low_9":0.04051971063017845,"SPX_Open_10":0.192939892411232,"SPX_Close_10":-0.0798647329211235,"SPX_High_10":0.024828683584928513,"SPX_Low_10":0.02159186825156212}},"21":{"bias":-0.06019048020243645,"weights":{"SPX_Open_1":-0.0670175850391388,"SPX_Close_1":0.12937192618846893,"SPX_High_1":0.10527664422988892,"SPX_Low_1":0.15368637442588806,"SPX_Open_2":-0.16482681035995483,"SPX_Close_2":-0.0789140835404396,"SPX_High_2":0.16056779026985168,"SPX_Low_2":0.12361819297075272,"SPX_Open_3":0.03363913297653198,"SPX_Close_3":-0.04042600467801094,"SPX_High_3":-0.157671257853508,"SPX_Low_3":0.059228602796792984,"SPX_Open_4":-0.1707833856344223,"SPX_Close_4":0.17292119562625885,"SPX_High_4":0.12713533639907837,"SPX_Low_4":-0.1541064977645874,"SPX_Open_5":0.007612880319356918,"SPX_Close_5":-0.16103073954582214,"SPX_High_5":0.11064616590738297,"SPX_Low_5":0.06854116916656494,"SPX_Open_6":0.048059795051813126,"SPX_Close_6":-0.18204286694526672,"SPX_High_6":-0.14437147974967957,"SPX_Low_6":0.19644956290721893,"SPX_Open_7":0.13534513115882874,"SPX_Close_7":-0.152879998087883,"SPX_High_7":0.06926452368497849,"SPX_Low_7":-0.11952126026153564,"SPX_Open_8":-0.1662738025188446,"SPX_Close_8":-0.05235626921057701,"SPX_High_8":0.17644180357456207,"SPX_Low_8":-0.0847729742527008,"SPX_Open_9":-0.07641758769750595,"SPX_Close_9":0.08440321683883667,"SPX_High_9":0.12741389870643616,"SPX_Low_9":0.052284419536590576,"SPX_Open_10":-0.16637805104255676,"SPX_Close_10":0.0603947676718235,"SPX_High_10":0.08570509403944016,"SPX_Low_10":-0.05451406165957451}},"22":{"bias":0.14460574090480804,"weights":{"SPX_Open_1":0.04461676999926567,"SPX_Close_1":-0.008956778794527054,"SPX_High_1":0.06414720416069031,"SPX_Low_1":0.19578972458839417,"SPX_Open_2":0.08922052383422852,"SPX_Close_2":-0.09007702022790909,"SPX_High_2":0.16607718169689178,"SPX_Low_2":0.016982801258563995,"SPX_Open_3":0.16754992306232452,"SPX_Close_3":-0.07728957384824753,"SPX_High_3":-0.021111447364091873,"SPX_Low_3":-0.011304175481200218,"SPX_Open_4":0.09965413808822632,"SPX_Close_4":-0.05023467168211937,"SPX_High_4":-0.06407634168863297,"SPX_Low_4":0.0016492620343342423,"SPX_Open_5":0.0038596789818257093,"SPX_Close_5":0.010556579567492008,"SPX_High_5":-0.1290983110666275,"SPX_Low_5":-0.06012249365448952,"SPX_Open_6":0.18716123700141907,"SPX_Close_6":-0.053960565477609634,"SPX_High_6":0.038842927664518356,"SPX_Low_6":0.13375630974769592,"SPX_Open_7":-0.1609784960746765,"SPX_Close_7":-0.07269899547100067,"SPX_High_7":-0.055225271731615067,"SPX_Low_7":0.1329444795846939,"SPX_Open_8":0.05371790751814842,"SPX_Close_8":-0.13648755848407745,"SPX_High_8":0.08920684456825256,"SPX_Low_8":0.04826789349317551,"SPX_Open_9":0.026444707065820694,"SPX_Close_9":-0.02217691019177437,"SPX_High_9":-0.0762212872505188,"SPX_Low_9":0.10135102272033691,"SPX_Open_10":0.09929843991994858,"SPX_Close_10":0.15676462650299072,"SPX_High_10":-0.02473854273557663,"SPX_Low_10":0.018225369974970818}},"23":{"bias":-0.10811592638492584,"weights":{"SPX_Open_1":-0.04922803118824959,"SPX_Close_1":-0.1750146895647049,"SPX_High_1":0.18163102865219116,"SPX_Low_1":0.1831994503736496,"SPX_Open_2":-0.15412549674510956,"SPX_Close_2":0.03776242583990097,"SPX_High_2":-0.08541866391897202,"SPX_Low_2":-0.15621443092823029,"SPX_Open_3":-0.08359059691429138,"SPX_Close_3":0.06322884559631348,"SPX_High_3":0.01783744804561138,"SPX_Low_3":-0.056964900344610214,"SPX_Open_4":0.034802116453647614,"SPX_Close_4":0.07143079489469528,"SPX_High_4":0.13211263716220856,"SPX_Low_4":-0.14895537495613098,"SPX_Open_5":-0.06222959980368614,"SPX_Close_5":-0.11645043641328812,"SPX_High_5":0.17263586819171906,"SPX_Low_5":-0.004744736943393946,"SPX_Open_6":-0.1531272679567337,"SPX_Close_6":0.1813967078924179,"SPX_High_6":0.08853136748075485,"SPX_Low_6":-0.1652171015739441,"SPX_Open_7":-0.1417626142501831,"SPX_Close_7":-0.044065557420253754,"SPX_High_7":0.14558851718902588,"SPX_Low_7":0.12350575625896454,"SPX_Open_8":0.19312310218811035,"SPX_Close_8":-0.027076179161667824,"SPX_High_8":0.1487986296415329,"SPX_Low_8":0.11524436622858047,"SPX_Open_9":-0.019621161743998528,"SPX_Close_9":-0.08601956814527512,"SPX_High_9":0.07322414219379425,"SPX_Low_9":-0.09126431494951248,"SPX_Open_10":0.03245723247528076,"SPX_Close_10":0.06357018649578094,"SPX_High_10":-0.05639846622943878,"SPX_Low_10":0.09701114892959595}},"24":{"bias":0.04197504371404648,"weights":{"SPX_Open_1":0.18177247047424316,"SPX_Close_1":-0.09473008662462234,"SPX_High_1":0.07668757438659668,"SPX_Low_1":-0.037463780492544174,"SPX_Open_2":-0.023010317236185074,"SPX_Close_2":0.10285233706235886,"SPX_High_2":-0.05121326819062233,"SPX_Low_2":0.16150672733783722,"SPX_Open_3":0.06240616366267204,"SPX_Close_3":-0.19658292829990387,"SPX_High_3":-0.16555577516555786,"SPX_Low_3":0.08627145737409592,"SPX_Open_4":-0.17525754868984222,"SPX_Close_4":0.13386709988117218,"SPX_High_4":-0.00517269829288125,"SPX_Low_4":-0.09530916810035706,"SPX_Open_5":0.023090729489922523,"SPX_Close_5":0.050897762179374695,"SPX_High_5":-0.1506100594997406,"SPX_Low_5":0.17638693749904633,"SPX_Open_6":0.14484645426273346,"SPX_Close_6":0.0556570328772068,"SPX_High_6":-0.11564415693283081,"SPX_Low_6":-0.04505620151758194,"SPX_Open_7":0.0015239105559885502,"SPX_Close_7":-0.17562547326087952,"SPX_High_7":0.05837627127766609,"SPX_Low_7":-0.13035352528095245,"SPX_Open_8":0.0259785708039999,"SPX_Close_8":-0.10385052859783173,"SPX_High_8":0.15018026530742645,"SPX_Low_8":-0.1641048938035965,"SPX_Open_9":0.041503164917230606,"SPX_Close_9":-0.011748697608709335,"SPX_High_9":-0.1374354511499405,"SPX_Low_9":-0.16633595526218414,"SPX_Open_10":-0.037779550999403,"SPX_Close_10":-0.09100741147994995,"SPX_High_10":-0.13273438811302185,"SPX_Low_10":-0.05162433534860611}},"25":{"bias":0.12578584253787994,"weights":{"SPX_Open_1":0.05564269423484802,"SPX_Close_1":0.04336049035191536,"SPX_High_1":-0.15318326652050018,"SPX_Low_1":-0.15216386318206787,"SPX_Open_2":-0.11794871091842651,"SPX_Close_2":-0.17144474387168884,"SPX_High_2":-0.16733449697494507,"SPX_Low_2":0.08765371888875961,"SPX_Open_3":-0.04865523427724838,"SPX_Close_3":-0.13463425636291504,"SPX_High_3":-0.1398213654756546,"SPX_Low_3":0.0850309208035469,"SPX_Open_4":-0.03540797531604767,"SPX_Close_4":-0.19972200691699982,"SPX_High_4":0.16524174809455872,"SPX_Low_4":-0.0789891853928566,"SPX_Open_5":-0.18934985995292664,"SPX_Close_5":0.020114410668611526,"SPX_High_5":0.044368892908096313,"SPX_Low_5":-0.052845366299152374,"SPX_Open_6":-0.18388834595680237,"SPX_Close_6":-0.1813667118549347,"SPX_High_6":0.08295110613107681,"SPX_Low_6":0.16236388683319092,"SPX_Open_7":0.10607703030109406,"SPX_Close_7":-0.1545613706111908,"SPX_High_7":0.10802207142114639,"SPX_Low_7":0.03782254457473755,"SPX_Open_8":0.19445684552192688,"SPX_Close_8":-0.03034181520342827,"SPX_High_8":0.1911184936761856,"SPX_Low_8":0.16460172832012177,"SPX_Open_9":0.04162409529089928,"SPX_Close_9":-0.03024548850953579,"SPX_High_9":-0.09099733084440231,"SPX_Low_9":0.15044240653514862,"SPX_Open_10":0.026292381808161736,"SPX_Close_10":-0.0005843610852025449,"SPX_High_10":0.019223803654313087,"SPX_Low_10":0.02223951742053032}},"26":{"bias":-0.01740201748907566,"weights":{"SPX_Open_1":0.10682791471481323,"SPX_Close_1":0.06457480788230896,"SPX_High_1":0.08422455191612244,"SPX_Low_1":0.16082234680652618,"SPX_Open_2":0.149537593126297,"SPX_Close_2":0.021239839494228363,"SPX_High_2":0.0835362896323204,"SPX_Low_2":0.02046619914472103,"SPX_Open_3":-0.12546831369400024,"SPX_Close_3":0.1763181835412979,"SPX_High_3":0.17592746019363403,"SPX_Low_3":0.1457546204328537,"SPX_Open_4":-0.1436200588941574,"SPX_Close_4":-0.14523106813430786,"SPX_High_4":0.13853582739830017,"SPX_Low_4":-0.12450581789016724,"SPX_Open_5":-0.07579657435417175,"SPX_Close_5":-0.1777820885181427,"SPX_High_5":0.19927456974983215,"SPX_Low_5":0.15029306709766388,"SPX_Open_6":0.13374866545200348,"SPX_Close_6":-0.028091460466384888,"SPX_High_6":0.04279552027583122,"SPX_Low_6":0.17177534103393555,"SPX_Open_7":0.18076679110527039,"SPX_Close_7":-0.013100890442728996,"SPX_High_7":0.019824029877781868,"SPX_Low_7":-0.07569004595279694,"SPX_Open_8":-0.1429743766784668,"SPX_Close_8":0.06259392201900482,"SPX_High_8":-0.1990019977092743,"SPX_Low_8":-0.12239095568656921,"SPX_Open_9":-0.11082391440868378,"SPX_Close_9":0.10645951330661774,"SPX_High_9":-0.01890566013753414,"SPX_Low_9":0.14068958163261414,"SPX_Open_10":-0.017860371619462967,"SPX_Close_10":-0.15708820521831512,"SPX_High_10":-0.12164252251386642,"SPX_Low_10":-0.18309888243675232}},"27":{"bias":0.0649375468492508,"weights":{"SPX_Open_1":0.1487116813659668,"SPX_Close_1":0.10581246018409729,"SPX_High_1":0.17513832449913025,"SPX_Low_1":0.16382092237472534,"SPX_Open_2":-0.1598367691040039,"SPX_Close_2":0.08332282304763794,"SPX_High_2":-0.07073311507701874,"SPX_Low_2":-0.1456257402896881,"SPX_Open_3":-0.1480555385351181,"SPX_Close_3":0.16338424384593964,"SPX_High_3":-0.14864574372768402,"SPX_Low_3":-0.11660599708557129,"SPX_Open_4":-0.028621317818760872,"SPX_Close_4":0.14927880465984344,"SPX_High_4":0.1205916628241539,"SPX_Low_4":0.011773614212870598,"SPX_Open_5":0.16176189482212067,"SPX_Close_5":0.08073138445615768,"SPX_High_5":0.08844003081321716,"SPX_Low_5":0.08977411687374115,"SPX_Open_6":-0.19594597816467285,"SPX_Close_6":-0.04832659289240837,"SPX_High_6":0.009480471722781658,"SPX_Low_6":0.17316579818725586,"SPX_Open_7":-0.1621030569076538,"SPX_Close_7":-0.08856264501810074,"SPX_High_7":0.09481100738048553,"SPX_Low_7":-0.14642734825611115,"SPX_Open_8":-0.11980339884757996,"SPX_Close_8":0.10089873522520065,"SPX_High_8":-0.056642547249794006,"SPX_Low_8":0.16535457968711853,"SPX_Open_9":-0.0900917500257492,"SPX_Close_9":0.1014970988035202,"SPX_High_9":0.18480035662651062,"SPX_Low_9":-0.16841377317905426,"SPX_Open_10":0.003955096006393433,"SPX_Close_10":-0.10817867517471313,"SPX_High_10":0.09334397315979004,"SPX_Low_10":0.15275031328201294}},"28":{"bias":-0.17888866364955902,"weights":{"SPX_Open_1":-0.18149621784687042,"SPX_Close_1":0.06935526430606842,"SPX_High_1":-0.006263453513383865,"SPX_Low_1":-0.040565602481365204,"SPX_Open_2":-0.08793380856513977,"SPX_Close_2":-0.10017856955528259,"SPX_High_2":-0.08798998594284058,"SPX_Low_2":0.08962706476449966,"SPX_Open_3":0.015993092209100723,"SPX_Close_3":-0.05111587420105934,"SPX_High_3":0.18216076493263245,"SPX_Low_3":0.15983888506889343,"SPX_Open_4":0.16023187339305878,"SPX_Close_4":-0.12006401270627975,"SPX_High_4":0.07927233725786209,"SPX_Low_4":0.19199641048908234,"SPX_Open_5":0.0921832025051117,"SPX_Close_5":0.004332912620157003,"SPX_High_5":-0.023950133472681046,"SPX_Low_5":-0.013295816257596016,"SPX_Open_6":0.14966906607151031,"SPX_Close_6":-0.12219025939702988,"SPX_High_6":-0.12746092677116394,"SPX_Low_6":0.08925732225179672,"SPX_Open_7":0.12691694498062134,"SPX_Close_7":0.05449966341257095,"SPX_High_7":0.13096335530281067,"SPX_Low_7":-0.19485871493816376,"SPX_Open_8":-0.15147696435451508,"SPX_Close_8":-0.10959071666002274,"SPX_High_8":-0.13101181387901306,"SPX_Low_8":0.18970446288585663,"SPX_Open_9":0.1990739405155182,"SPX_Close_9":-0.09568627923727036,"SPX_High_9":-0.18929801881313324,"SPX_Low_9":0.15326082706451416,"SPX_Open_10":0.02589228004217148,"SPX_Close_10":-0.07445153594017029,"SPX_High_10":0.18436580896377563,"SPX_Low_10":-0.1724797934293747}},"29":{"bias":-0.031901463866233826,"weights":{"SPX_Open_1":0.011931581422686577,"SPX_Close_1":-0.10924145579338074,"SPX_High_1":-0.07823081314563751,"SPX_Low_1":-0.11305449903011322,"SPX_Open_2":0.024710701778531075,"SPX_Close_2":0.18225599825382233,"SPX_High_2":0.09521511942148209,"SPX_Low_2":-0.08044461905956268,"SPX_Open_3":0.14701934158802032,"SPX_Close_3":-0.18193480372428894,"SPX_High_3":-0.14995937049388885,"SPX_Low_3":-0.09762804955244064,"SPX_Open_4":-0.014363713562488556,"SPX_Close_4":0.0751703530550003,"SPX_High_4":-0.015582718886435032,"SPX_Low_4":0.024862119928002357,"SPX_Open_5":0.1439993530511856,"SPX_Close_5":0.16166308522224426,"SPX_High_5":-0.04155629128217697,"SPX_Low_5":0.1308891475200653,"SPX_Open_6":-0.04377923905849457,"SPX_Close_6":0.17853179574012756,"SPX_High_6":-0.01657896488904953,"SPX_Low_6":-0.18295852839946747,"SPX_Open_7":0.0011182306334376335,"SPX_Close_7":0.18513986468315125,"SPX_High_7":-0.0075364564545452595,"SPX_Low_7":-0.18902413547039032,"SPX_Open_8":0.0033005711156874895,"SPX_Close_8":0.17361094057559967,"SPX_High_8":-0.07534421980381012,"SPX_Low_8":-0.1426922082901001,"SPX_Open_9":0.14522932469844818,"SPX_Close_9":0.16155491769313812,"SPX_High_9":-0.04484337195754051,"SPX_Low_9":-0.05237122252583504,"SPX_Open_10":0.09131047874689102,"SPX_Close_10":0.0606694333255291,"SPX_High_10":0.17619666457176208,"SPX_Low_10":0.06827183067798615}},"30":{"bias":0.021799273788928986,"weights":{"SPX_Open_1":-0.06631278991699219,"SPX_Close_1":-0.19113855063915253,"SPX_High_1":-0.015885155647993088,"SPX_Low_1":-0.12369021028280258,"SPX_Open_2":-0.06708526611328125,"SPX_Close_2":-0.17370055615901947,"SPX_High_2":0.1356171816587448,"SPX_Low_2":0.1842651516199112,"SPX_Open_3":-0.06560251861810684,"SPX_Close_3":-0.03289996087551117,"SPX_High_3":-0.1798780858516693,"SPX_Low_3":0.0220303013920784,"SPX_Open_4":-0.1367671638727188,"SPX_Close_4":0.13688255846500397,"SPX_High_4":0.02851554937660694,"SPX_Low_4":0.14558957517147064,"SPX_Open_5":-0.18314403295516968,"SPX_Close_5":0.10432267934083939,"SPX_High_5":0.014417088590562344,"SPX_Low_5":0.1749522089958191,"SPX_Open_6":0.046743154525756836,"SPX_Close_6":-0.08271125704050064,"SPX_High_6":0.1968136876821518,"SPX_Low_6":0.13719522953033447,"SPX_Open_7":0.19288848340511322,"SPX_Close_7":0.15462812781333923,"SPX_High_7":0.19609135389328003,"SPX_Low_7":-0.040542006492614746,"SPX_Open_8":-0.1088479682803154,"SPX_Close_8":-0.18776018917560577,"SPX_High_8":0.03653625026345253,"SPX_Low_8":0.18949496746063232,"SPX_Open_9":-0.09911917895078659,"SPX_Close_9":0.1536831110715866,"SPX_High_9":0.00514183659106493,"SPX_Low_9":-0.05903896316885948,"SPX_Open_10":-0.11443987488746643,"SPX_Close_10":-0.08203338831663132,"SPX_High_10":-0.06989220529794693,"SPX_Low_10":0.10237918049097061}},"31":{"bias":-0.09711352735757828,"weights":{"SPX_Open_1":-0.0693572387099266,"SPX_Close_1":0.043682098388671875,"SPX_High_1":0.19756880402565002,"SPX_Low_1":-0.17864444851875305,"SPX_Open_2":-0.0439344123005867,"SPX_Close_2":-0.14820435643196106,"SPX_High_2":0.07568497210741043,"SPX_Low_2":0.12769128382205963,"SPX_Open_3":-0.19830869138240814,"SPX_Close_3":0.0745953768491745,"SPX_High_3":0.02294030785560608,"SPX_Low_3":0.1898239105939865,"SPX_Open_4":-0.10624421387910843,"SPX_Close_4":-0.048596352338790894,"SPX_High_4":0.15360483527183533,"SPX_Low_4":0.04909854382276535,"SPX_Open_5":0.09673641622066498,"SPX_Close_5":0.007573063485324383,"SPX_High_5":-0.11137771606445312,"SPX_Low_5":-0.11575791984796524,"SPX_Open_6":-0.1019820123910904,"SPX_Close_6":0.010740593075752258,"SPX_High_6":-0.11449987441301346,"SPX_Low_6":-0.15842892229557037,"SPX_Open_7":-0.02225669100880623,"SPX_Close_7":-0.1905563622713089,"SPX_High_7":0.13063962757587433,"SPX_Low_7":-0.04326783865690231,"SPX_Open_8":0.14020030200481415,"SPX_Close_8":-0.09994964301586151,"SPX_High_8":0.028519442304968834,"SPX_Low_8":0.004857364576309919,"SPX_Open_9":0.04351699724793434,"SPX_Close_9":-0.03418424353003502,"SPX_High_9":-0.07674318552017212,"SPX_Low_9":0.15485543012619019,"SPX_Open_10":-0.10690023750066757,"SPX_Close_10":-0.1116485670208931,"SPX_High_10":0.1728217601776123,"SPX_Low_10":-0.09118759632110596}},"32":{"bias":0.1631418764591217,"weights":{"SPX_Open_1":-0.06808042526245117,"SPX_Close_1":-0.18815064430236816,"SPX_High_1":0.028585756197571754,"SPX_Low_1":0.06158238276839256,"SPX_Open_2":0.04449666291475296,"SPX_Close_2":0.0033412801567465067,"SPX_High_2":-0.1672346591949463,"SPX_Low_2":-0.030199671164155006,"SPX_Open_3":0.08788522332906723,"SPX_Close_3":0.0501449815928936,"SPX_High_3":-0.05110672488808632,"SPX_Low_3":0.04195363074541092,"SPX_Open_4":-0.09645235538482666,"SPX_Close_4":0.18198008835315704,"SPX_High_4":-0.15852104127407074,"SPX_Low_4":-0.11900129914283752,"SPX_Open_5":-0.02750309556722641,"SPX_Close_5":0.07310337573289871,"SPX_High_5":0.026846185326576233,"SPX_Low_5":-0.08352869004011154,"SPX_Open_6":-0.07084667682647705,"SPX_Close_6":0.010218220762908459,"SPX_High_6":-0.006994405295699835,"SPX_Low_6":0.19907163083553314,"SPX_Open_7":0.1301792562007904,"SPX_Close_7":0.08011067658662796,"SPX_High_7":0.008666463196277618,"SPX_Low_7":-0.10261315852403641,"SPX_Open_8":-0.11961376667022705,"SPX_Close_8":0.09261096268892288,"SPX_High_8":-0.08302031457424164,"SPX_Low_8":0.0862530842423439,"SPX_Open_9":0.07139608263969421,"SPX_Close_9":-0.14243778586387634,"SPX_High_9":0.07237878441810608,"SPX_Low_9":-0.04387813061475754,"SPX_Open_10":-0.10737409442663193,"SPX_Close_10":0.0910450890660286,"SPX_High_10":0.035877421498298645,"SPX_Low_10":-0.10258617252111435}},"33":{"bias":-0.10690028220415115,"weights":{"SPX_Open_1":0.13783657550811768,"SPX_Close_1":-0.04030611366033554,"SPX_High_1":-0.10533110797405243,"SPX_Low_1":0.1083599403500557,"SPX_Open_2":0.13300730288028717,"SPX_Close_2":-0.04660513624548912,"SPX_High_2":-0.07430262863636017,"SPX_Low_2":0.09176180511713028,"SPX_Open_3":-0.019047899171710014,"SPX_Close_3":0.19504223763942719,"SPX_High_3":-0.0574650838971138,"SPX_Low_3":0.13042061030864716,"SPX_Open_4":0.03363867476582527,"SPX_Close_4":0.046486515551805496,"SPX_High_4":0.1496077924966812,"SPX_Low_4":-0.1305209845304489,"SPX_Open_5":0.12673312425613403,"SPX_Close_5":-0.07620260119438171,"SPX_High_5":-0.040546610951423645,"SPX_Low_5":0.10982966423034668,"SPX_Open_6":0.1614999920129776,"SPX_Close_6":0.053951334208250046,"SPX_High_6":-0.01203988865017891,"SPX_Low_6":0.02910872921347618,"SPX_Open_7":-0.03935863822698593,"SPX_Close_7":-0.0825352817773819,"SPX_High_7":-0.09168823063373566,"SPX_Low_7":0.14036382734775543,"SPX_Open_8":0.09663420170545578,"SPX_Close_8":0.19152691960334778,"SPX_High_8":-0.13029710948467255,"SPX_Low_8":0.15124626457691193,"SPX_Open_9":0.006503690965473652,"SPX_Close_9":0.0825352594256401,"SPX_High_9":-0.143060103058815,"SPX_Low_9":0.1639653444290161,"SPX_Open_10":0.00039988994831219316,"SPX_Close_10":0.0384119488298893,"SPX_High_10":-0.08414795994758606,"SPX_Low_10":-0.13620582222938538}},"34":{"bias":-0.09451791644096375,"weights":{"SPX_Open_1":0.06688336282968521,"SPX_Close_1":0.13759566843509674,"SPX_High_1":0.1806364357471466,"SPX_Low_1":0.1425764113664627,"SPX_Open_2":0.033703554421663284,"SPX_Close_2":-0.027682680636644363,"SPX_High_2":0.06625038385391235,"SPX_Low_2":-0.018366193398833275,"SPX_Open_3":-0.11709921807050705,"SPX_Close_3":0.08024454116821289,"SPX_High_3":-0.01205058116465807,"SPX_Low_3":0.13689537346363068,"SPX_Open_4":0.10662228614091873,"SPX_Close_4":-0.10497540235519409,"SPX_High_4":-0.17666101455688477,"SPX_Low_4":-0.13776950538158417,"SPX_Open_5":0.11753377318382263,"SPX_Close_5":0.0483752004802227,"SPX_High_5":0.10596106201410294,"SPX_Low_5":0.17587393522262573,"SPX_Open_6":0.14184312522411346,"SPX_Close_6":0.014626008458435535,"SPX_High_6":0.18809384107589722,"SPX_Low_6":0.12273553758859634,"SPX_Open_7":-0.159028097987175,"SPX_Close_7":-0.10335150361061096,"SPX_High_7":-0.08050844818353653,"SPX_Low_7":0.04827427491545677,"SPX_Open_8":0.061743807047605515,"SPX_Close_8":0.08605974167585373,"SPX_High_8":0.1373549848794937,"SPX_Low_8":0.09716691076755524,"SPX_Open_9":-0.01330608781427145,"SPX_Close_9":0.011961475014686584,"SPX_High_9":0.0267011821269989,"SPX_Low_9":0.03957593813538551,"SPX_Open_10":-0.013036608695983887,"SPX_Close_10":-0.1664077341556549,"SPX_High_10":0.06447485834360123,"SPX_Low_10":0.05520253628492355}},"35":{"bias":0.11241678148508072,"weights":{"SPX_Open_1":0.1910392791032791,"SPX_Close_1":0.18593266606330872,"SPX_High_1":-0.17767682671546936,"SPX_Low_1":0.08761397749185562,"SPX_Open_2":0.19669124484062195,"SPX_Close_2":-0.12017925083637238,"SPX_High_2":-0.1586170792579651,"SPX_Low_2":0.02822764962911606,"SPX_Open_3":-0.08082371950149536,"SPX_Close_3":-0.08845250308513641,"SPX_High_3":-0.09583500772714615,"SPX_Low_3":0.1681690663099289,"SPX_Open_4":0.1369340717792511,"SPX_Close_4":0.07314770668745041,"SPX_High_4":-0.08880867063999176,"SPX_Low_4":-0.05872885137796402,"SPX_Open_5":-0.08337386697530746,"SPX_Close_5":0.13998731970787048,"SPX_High_5":-0.08352938294410706,"SPX_Low_5":0.11549336463212967,"SPX_Open_6":0.06283494085073471,"SPX_Close_6":-0.012252659536898136,"SPX_High_6":-0.044870007783174515,"SPX_Low_6":0.07097505033016205,"SPX_Open_7":0.08131105452775955,"SPX_Close_7":-0.0017720028990879655,"SPX_High_7":-0.08466894924640656,"SPX_Low_7":0.17319636046886444,"SPX_Open_8":0.036561306565999985,"SPX_Close_8":0.14318488538265228,"SPX_High_8":0.18286961317062378,"SPX_Low_8":0.07679152488708496,"SPX_Open_9":-0.08800451457500458,"SPX_Close_9":0.12574982643127441,"SPX_High_9":0.008306172676384449,"SPX_Low_9":-0.14647257328033447,"SPX_Open_10":0.11097662150859833,"SPX_Close_10":-0.019175024703145027,"SPX_High_10":-0.054572634398937225,"SPX_Low_10":0.07201216369867325}},"36":{"bias":0.119989313185215,"weights":{"SPX_Open_1":0.11098242551088333,"SPX_Close_1":0.035111285746097565,"SPX_High_1":0.10359647870063782,"SPX_Low_1":0.0043866559863090515,"SPX_Open_2":0.0177852064371109,"SPX_Close_2":-0.07656658440828323,"SPX_High_2":-0.08896448463201523,"SPX_Low_2":0.08312896639108658,"SPX_Open_3":0.06286370009183884,"SPX_Close_3":-0.09483745694160461,"SPX_High_3":-0.1829526424407959,"SPX_Low_3":-0.11890657246112823,"SPX_Open_4":-0.03531211242079735,"SPX_Close_4":-0.0663142204284668,"SPX_High_4":0.18543408811092377,"SPX_Low_4":-0.17643223702907562,"SPX_Open_5":0.17774616181850433,"SPX_Close_5":-0.0006032225792296231,"SPX_High_5":0.13864447176456451,"SPX_Low_5":-0.19970156252384186,"SPX_Open_6":-0.013750424608588219,"SPX_Close_6":0.1362490952014923,"SPX_High_6":-0.13895532488822937,"SPX_Low_6":-0.19968795776367188,"SPX_Open_7":0.10957436263561249,"SPX_Close_7":-0.15860114991664886,"SPX_High_7":-0.18551507592201233,"SPX_Low_7":0.01594293676316738,"SPX_Open_8":0.026420406997203827,"SPX_Close_8":0.029474522918462753,"SPX_High_8":0.063277468085289,"SPX_Low_8":-0.07790682464838028,"SPX_Open_9":-0.1933189034461975,"SPX_Close_9":0.11167595535516739,"SPX_High_9":0.03031283989548683,"SPX_Low_9":0.044546689838171005,"SPX_Open_10":-0.014079643413424492,"SPX_Close_10":0.1565358191728592,"SPX_High_10":0.15027491748332977,"SPX_Low_10":-0.05247658118605614}},"37":{"bias":-0.16578592360019684,"weights":{"SPX_Open_1":0.1756862848997116,"SPX_Close_1":0.13753153383731842,"SPX_High_1":-0.14927148818969727,"SPX_Low_1":-0.11397739499807358,"SPX_Open_2":-0.0949142798781395,"SPX_Close_2":0.18825343251228333,"SPX_High_2":0.009267532266676426,"SPX_Low_2":-0.19515860080718994,"SPX_Open_3":0.1591683030128479,"SPX_Close_3":-0.029839584603905678,"SPX_High_3":-0.04242692515254021,"SPX_Low_3":-0.03891461342573166,"SPX_Open_4":-0.15914234519004822,"SPX_Close_4":-0.08651403337717056,"SPX_High_4":-0.11197207123041153,"SPX_Low_4":-0.16383890807628632,"SPX_Open_5":-0.15549632906913757,"SPX_Close_5":0.12683548033237457,"SPX_High_5":-0.07573077827692032,"SPX_Low_5":-0.13627921044826508,"SPX_Open_6":0.1962682008743286,"SPX_Close_6":-0.05863158404827118,"SPX_High_6":0.19453316926956177,"SPX_Low_6":0.1613316684961319,"SPX_Open_7":0.07011950761079788,"SPX_Close_7":0.17382609844207764,"SPX_High_7":0.013770713470876217,"SPX_Low_7":-0.10182922333478928,"SPX_Open_8":0.09842133522033691,"SPX_Close_8":0.09862371534109116,"SPX_High_8":-0.1384137123823166,"SPX_Low_8":-0.07953005284070969,"SPX_Open_9":0.08738188445568085,"SPX_Close_9":0.09825154393911362,"SPX_High_9":-0.06318695843219757,"SPX_Low_9":-0.18031907081604004,"SPX_Open_10":0.0022103716619312763,"SPX_Close_10":-0.08557892590761185,"SPX_High_10":0.16642947494983673,"SPX_Low_10":0.05712876468896866}},"38":{"bias":-0.04532347992062569,"weights":{"SPX_Open_1":0.1810707002878189,"SPX_Close_1":-0.10096309334039688,"SPX_High_1":0.15690317749977112,"SPX_Low_1":-0.0958968847990036,"SPX_Open_2":0.03707157075405121,"SPX_Close_2":0.16126038134098053,"SPX_High_2":0.1527010202407837,"SPX_Low_2":0.10955451428890228,"SPX_Open_3":-0.08715164661407471,"SPX_Close_3":-0.05230299010872841,"SPX_High_3":-0.13846367597579956,"SPX_Low_3":0.1407804787158966,"SPX_Open_4":-0.0963454395532608,"SPX_Close_4":-0.1393233835697174,"SPX_High_4":0.1622186005115509,"SPX_Low_4":0.17300210893154144,"SPX_Open_5":-0.018067527562379837,"SPX_Close_5":0.14356109499931335,"SPX_High_5":0.060152627527713776,"SPX_Low_5":-0.0917498990893364,"SPX_Open_6":-0.16356854140758514,"SPX_Close_6":-0.14044873416423798,"SPX_High_6":-0.10401339083909988,"SPX_Low_6":0.0830349326133728,"SPX_Open_7":-0.004259779118001461,"SPX_Close_7":0.1882772594690323,"SPX_High_7":0.07412038743495941,"SPX_Low_7":0.042527712881565094,"SPX_Open_8":-0.01422260981053114,"SPX_Close_8":0.10960312932729721,"SPX_High_8":0.16073375940322876,"SPX_Low_8":0.07373426109552383,"SPX_Open_9":-0.1397033929824829,"SPX_Close_9":0.04285483807325363,"SPX_High_9":0.000796424865256995,"SPX_Low_9":0.07582519948482513,"SPX_Open_10":0.030149443075060844,"SPX_Close_10":-0.13606032729148865,"SPX_High_10":-0.04380126670002937,"SPX_Low_10":0.0875418484210968}},"39":{"bias":-0.05712365359067917,"weights":{"SPX_Open_1":-0.04124441742897034,"SPX_Close_1":0.019366566091775894,"SPX_High_1":-0.09041768312454224,"SPX_Low_1":-0.1563282608985901,"SPX_Open_2":-0.1511281430721283,"SPX_Close_2":0.04778354614973068,"SPX_High_2":-0.194961816072464,"SPX_Low_2":-0.07199140638113022,"SPX_Open_3":0.010703221894800663,"SPX_Close_3":-0.14026843011379242,"SPX_High_3":-0.05370340496301651,"SPX_Low_3":0.09540766477584839,"SPX_Open_4":0.06914088129997253,"SPX_Close_4":-0.15380939841270447,"SPX_High_4":0.18250241875648499,"SPX_Low_4":0.020131129771471024,"SPX_Open_5":-0.04574441537261009,"SPX_Close_5":0.15441428124904633,"SPX_High_5":0.07102914899587631,"SPX_Low_5":0.0159646887332201,"SPX_Open_6":-0.18032678961753845,"SPX_Close_6":-0.19768431782722473,"SPX_High_6":0.054339442402124405,"SPX_Low_6":0.06746907532215118,"SPX_Open_7":-0.009969880804419518,"SPX_Close_7":-0.15440966188907623,"SPX_High_7":-0.14767402410507202,"SPX_Low_7":0.0380999855697155,"SPX_Open_8":-0.00026403539231978357,"SPX_Close_8":0.14150501787662506,"SPX_High_8":-0.05193758010864258,"SPX_Low_8":-0.04183660075068474,"SPX_Open_9":-0.07221906632184982,"SPX_Close_9":0.017185913398861885,"SPX_High_9":-0.05875427648425102,"SPX_Low_9":0.14163437485694885,"SPX_Open_10":0.0870005264878273,"SPX_Close_10":-0.019501060247421265,"SPX_High_10":-0.04138628765940666,"SPX_Low_10":-0.1665421426296234}}},{"0":{"bias":-0.14767445623874664,"weights":{"0":-0.05897725746035576,"1":0.1517338901758194,"2":0.086826853454113,"3":-0.11969301849603653,"4":0.19348256289958954,"5":0.12247901409864426,"6":-0.11028909683227539,"7":-0.16813093423843384,"8":0.11508864909410477,"9":-0.09234663844108582,"10":-0.06047240272164345,"11":-0.1741487979888916,"12":0.1674223691225052,"13":-0.09765207022428513,"14":-0.06210293993353844,"15":0.08459332585334778,"16":-0.04278847947716713,"17":0.0028765357565134764,"18":0.03891327232122421,"19":0.17213483154773712,"20":-0.14588774740695953,"21":0.12284660339355469,"22":-0.06023327261209488,"23":-0.03630699962377548,"24":0.13482666015625,"25":0.09490752220153809,"26":0.19283445179462433,"27":0.109596848487854,"28":-0.14760784804821014,"29":0.08130618929862976,"30":-0.17262542247772217,"31":0.1958785206079483,"32":0.10409470647573471,"33":-0.19299696385860443,"34":-0.17285695672035217,"35":-0.0066216737031936646,"36":-0.12759831547737122,"37":0.009146204218268394,"38":0.19991299510002136,"39":-0.032793328166007996}},"1":{"bias":-0.13719524443149567,"weights":{"0":0.0769563764333725,"1":-0.1294100284576416,"2":-0.15017493069171906,"3":0.06277397274971008,"4":0.022640621289610863,"5":-0.14966750144958496,"6":-0.19997474551200867,"7":-0.0017083248822018504,"8":-0.08981096744537354,"9":0.18092188239097595,"10":0.14467240869998932,"11":-0.19297704100608826,"12":-0.10499744862318039,"13":-0.03961537405848503,"14":0.1088939979672432,"15":0.09237685799598694,"16":-0.054472535848617554,"17":-0.1782025843858719,"18":-0.1897706389427185,"19":0.16180647909641266,"20":-0.16581173241138458,"21":0.12238746881484985,"22":-0.09327027201652527,"23":-0.13423162698745728,"24":-0.18631227314472198,"25":-0.1379043161869049,"26":-0.10133924335241318,"27":0.02730858512222767,"28":-0.005116041749715805,"29":-0.10507979989051819,"30":0.0036127453204244375,"31":-0.017284022644162178,"32":-0.058815255761146545,"33":-0.15024909377098083,"34":-0.1501004546880722,"35":-0.1256551593542099,"36":0.015543542802333832,"37":0.17961904406547546,"38":0.16623294353485107,"39":0.1582614928483963}},"2":{"bias":0.03456934168934822,"weights":{"0":-0.08009856939315796,"1":-0.0709935650229454,"2":-0.16821174323558807,"3":-0.04207171872258186,"4":-0.1011740043759346,"5":0.11929100006818771,"6":0.003897926304489374,"7":0.06578531116247177,"8":-0.13664373755455017,"9":-0.02477126382291317,"10":0.08985800296068192,"11":-0.13800011575222015,"12":-0.043967582285404205,"13":0.15216191112995148,"14":-0.11292983591556549,"15":0.09492532908916473,"16":0.07808677107095718,"17":-0.1509796530008316,"18":-0.07090096175670624,"19":0.17125475406646729,"20":-0.0753384605050087,"21":0.15864107012748718,"22":-0.007083853706717491,"23":0.06906329095363617,"24":0.02942892350256443,"25":0.030868276953697205,"26":-0.18944688141345978,"27":-0.05095287412405014,"28":0.11918433010578156,"29":-0.05257507413625717,"30":0.05852914974093437,"31":-0.12127608805894852,"32":0.055884573608636856,"33":-0.09983039647340775,"34":-0.1775064915418625,"35":-0.05516938865184784,"36":0.08573178946971893,"37":0.12010064721107483,"38":0.010337733663618565,"39":0.16183437407016754}},"3":{"bias":0.0373971052467823,"weights":{"0":0.0791107565164566,"1":-0.0016531385481357574,"2":-0.011057581752538681,"3":0.07508300244808197,"4":0.08342111110687256,"5":0.07725485414266586,"6":0.01736300252377987,"7":0.09329478442668915,"8":-0.14268483221530914,"9":-0.01610589399933815,"10":0.1468980610370636,"11":-0.008240565657615662,"12":0.023368271067738533,"13":0.16352683305740356,"14":0.01907152682542801,"15":0.10451162606477737,"16":-0.1941530555486679,"17":0.17131362855434418,"18":0.14429527521133423,"19":0.1706768423318863,"20":-0.18687313795089722,"21":0.10194268822669983,"22":0.15369291603565216,"23":-0.10573749244213104,"24":-0.08868853747844696,"25":0.12785004079341888,"26":-0.016317563131451607,"27":-0.15022984147071838,"28":0.1007828563451767,"29":-0.0785016268491745,"30":-0.127976194024086,"31":0.04328255355358124,"32":-0.06789274513721466,"33":0.13505740463733673,"34":0.069114550948143,"35":-0.15286977589130402,"36":0.07429314404726028,"37":0.16796661913394928,"38":-0.013985099270939827,"39":0.12312876433134079}},"4":{"bias":-0.10084227472543716,"weights":{"0":-0.06192760914564133,"1":-0.12121803313493729,"2":-0.027950476855039597,"3":-0.13196365535259247,"4":0.060860008001327515,"5":-0.136819526553154,"6":-0.12848560512065887,"7":0.05025647208094597,"8":-0.040439944714307785,"9":0.08311431109905243,"10":0.16053758561611176,"11":0.15452440083026886,"12":-0.15174850821495056,"13":0.15398569405078888,"14":-0.08603135496377945,"15":-0.12565594911575317,"16":0.15453240275382996,"17":0.0026106976438313723,"18":0.01631593331694603,"19":-0.1072758138179779,"20":-0.07069092243909836,"21":-0.19751064479351044,"22":0.03429025411605835,"23":0.19335906207561493,"24":-0.03207793086767197,"25":-0.170663520693779,"26":-0.1786239892244339,"27":0.19221282005310059,"28":0.09016558527946472,"29":-0.09597887843847275,"30":0.03428342193365097,"31":-0.06129271537065506,"32":0.09940411895513535,"33":0.11596499383449554,"34":0.158414825797081,"35":-0.16522958874702454,"36":-0.19576382637023926,"37":0.09025353193283081,"38":-0.04517431929707527,"39":-0.136705681681633}},"5":{"bias":0.17792117595672607,"weights":{"0":-0.08104033023118973,"1":0.1975012570619583,"2":-0.013760816305875778,"3":0.15544721484184265,"4":-0.16165010631084442,"5":-0.05468913912773132,"6":-0.1994755119085312,"7":0.13215892016887665,"8":-0.17749419808387756,"9":-0.10765595734119415,"10":0.14588889479637146,"11":0.19831863045692444,"12":0.0653587132692337,"13":0.024954359978437424,"14":0.08624985814094543,"15":-0.10867185890674591,"16":-0.19954988360404968,"17":0.06782686710357666,"18":0.1982201784849167,"19":-0.11210325360298157,"20":-0.18118639290332794,"21":0.0995103120803833,"22":0.12314627319574356,"23":0.04172934964299202,"24":0.04839009419083595,"25":0.19808611273765564,"26":-0.18820670247077942,"27":-0.16554760932922363,"28":0.109304279088974,"29":0.15521389245986938,"30":-0.08186180889606476,"31":0.12716348469257355,"32":-0.06385213136672974,"33":-0.17124302685260773,"34":0.01788591407239437,"35":0.08396059274673462,"36":0.13484831154346466,"37":0.12985581159591675,"38":0.19158144295215607,"39":0.16689006984233856}},"6":{"bias":0.12232889980077744,"weights":{"0":0.023189827799797058,"1":0.13060611486434937,"2":0.1271512359380722,"3":0.03984282538294792,"4":0.04451865330338478,"5":-0.1849011331796646,"6":-0.19004608690738678,"7":-0.05772284045815468,"8":0.11048314720392227,"9":0.061340104788541794,"10":-0.014052673242986202,"11":0.11008134484291077,"12":0.012506256811320782,"13":-0.032726041972637177,"14":0.10194531083106995,"15":-0.15480314195156097,"16":0.14432916045188904,"17":0.11473312228918076,"18":-0.07962773740291595,"19":0.08389350026845932,"20":-0.09031635522842407,"21":0.10829377919435501,"22":-0.12654028832912445,"23":-0.04127976670861244,"24":0.011324729770421982,"25":0.1402820646762848,"26":-0.009469740092754364,"27":-0.19263821840286255,"28":0.08184909075498581,"29":0.06518025696277618,"30":0.12337058782577515,"31":-0.18044279515743256,"32":0.07311803847551346,"33":0.14562733471393585,"34":0.158878356218338,"35":0.1309516429901123,"36":0.013357055373489857,"37":-0.15200260281562805,"38":0.08654595166444778,"39":0.19450069963932037}},"7":{"bias":0.02648800238966942,"weights":{"0":-0.0972173660993576,"1":0.18638202548027039,"2":0.02679663524031639,"3":0.14330686628818512,"4":0.16806811094284058,"5":0.012783514335751534,"6":-0.043423984199762344,"7":0.14772792160511017,"8":0.1514526605606079,"9":0.16497991979122162,"10":-0.005218436010181904,"11":-0.09143710881471634,"12":-0.19457009434700012,"13":-0.07891974598169327,"14":0.02255777083337307,"15":0.01902109757065773,"16":-0.196089506149292,"17":-0.11403266340494156,"18":-0.13482360541820526,"19":0.005189829505980015,"20":-0.14204446971416473,"21":-0.1535993218421936,"22":0.033317264169454575,"23":0.024123506620526314,"24":-0.027444828301668167,"25":0.012342662550508976,"26":0.15879502892494202,"27":-0.02195882424712181,"28":-0.0757976621389389,"29":-0.14783324301242828,"30":-0.0663752481341362,"31":0.18512265384197235,"32":0.15492793917655945,"33":-0.19996361434459686,"34":0.13497109711170197,"35":-0.17224432528018951,"36":0.13667955994606018,"37":-0.08868934959173203,"38":0.15599724650382996,"39":-0.14676745235919952}},"8":{"bias":0.14517958462238312,"weights":{"0":-0.14290285110473633,"1":-0.12377804517745972,"2":-0.03199117258191109,"3":-0.0511072613298893,"4":0.18417714536190033,"5":-0.14489714801311493,"6":-0.1792246401309967,"7":-0.016431409865617752,"8":0.11516106873750687,"9":-0.037711914628744125,"10":-0.018571192398667336,"11":0.029827523976564407,"12":0.06368104368448257,"13":-0.07366812974214554,"14":-0.11283236742019653,"15":0.0662374421954155,"16":0.18698270618915558,"17":-0.0709049180150032,"18":0.12152120471000671,"19":-0.112254299223423,"20":0.13350677490234375,"21":-0.022543735802173615,"22":0.0997626855969429,"23":-0.05897790938615799,"24":-0.03424203023314476,"25":0.0591634064912796,"26":0.09093815833330154,"27":0.122982919216156,"28":0.1316523402929306,"29":-0.15927281975746155,"30":-0.11118483543395996,"31":0.1135684922337532,"32":0.005837652832269669,"33":0.015405786223709583,"34":0.012137200683355331,"35":-0.02303769625723362,"36":0.13396358489990234,"37":0.1503193974494934,"38":-0.06277535855770111,"39":-0.005971107631921768}},"9":{"bias":-0.09975986182689667,"weights":{"0":-0.0005892596673220396,"1":-0.15621961653232574,"2":0.07265614718198776,"3":-0.19938541948795319,"4":0.008496721275150776,"5":0.1714165359735489,"6":0.02370862476527691,"7":-0.16635869443416595,"8":0.14673049747943878,"9":-0.16654033958911896,"10":0.198649600148201,"11":-0.12183790653944016,"12":-0.0004198218521196395,"13":-0.1921447068452835,"14":-0.11368101835250854,"15":0.0039964052848517895,"16":-0.1511867195367813,"17":0.0717758759856224,"18":-0.10926377773284912,"19":0.04470968618988991,"20":-0.06664066761732101,"21":-0.017398416996002197,"22":0.07984445244073868,"23":0.10499133914709091,"24":-0.1803523749113083,"25":-0.11056404560804367,"26":-0.17463864386081696,"27":-0.008969863876700401,"28":-0.013539881445467472,"29":-0.028124265372753143,"30":0.1668669730424881,"31":0.1760011464357376,"32":0.1609274446964264,"33":-0.16941627860069275,"34":0.11522875726222992,"35":-0.005293386057019234,"36":-0.1768922507762909,"37":-0.023655127733945847,"38":0.05961388722062111,"39":0.12958264350891113}},"10":{"bias":-0.0786876305937767,"weights":{"0":-0.10493267327547073,"1":0.13924838602542877,"2":-0.04975249618291855,"3":-0.14838048815727234,"4":0.19251760840415955,"5":-0.15237785875797272,"6":-0.03505408391356468,"7":-0.18449357151985168,"8":0.18771031498908997,"9":-0.14462119340896606,"10":0.1030488982796669,"11":0.16575460135936737,"12":-0.06927239894866943,"13":0.022372446954250336,"14":-0.015794960781931877,"15":-0.06505715101957321,"16":-0.0703469067811966,"17":0.09382675588130951,"18":0.04433281347155571,"19":-0.13736137747764587,"20":-0.17804113030433655,"21":0.03609660640358925,"22":0.036243632435798645,"23":-0.19466595351696014,"24":-0.044306088238954544,"25":-0.10547035187482834,"26":-0.12033374607563019,"27":0.08344310522079468,"28":-0.17647883296012878,"29":0.12316644191741943,"30":0.1357022374868393,"31":-0.10770582407712936,"32":0.03968167304992676,"33":-0.058991193771362305,"34":-0.04416453093290329,"35":0.008477388881146908,"36":0.007508296053856611,"37":0.12346171587705612,"38":-0.07727837562561035,"39":-0.01313638873398304}},"11":{"bias":0.017508627846837044,"weights":{"0":0.03111146204173565,"1":-0.031458206474781036,"2":-0.0432417094707489,"3":0.14779680967330933,"4":-0.0607147254049778,"5":0.10547085851430893,"6":-0.1006779819726944,"7":-0.1101653203368187,"8":-0.07896817475557327,"9":0.013712453655898571,"10":-0.154828742146492,"11":-0.18498246371746063,"12":-0.1971275359392166,"13":0.11612552404403687,"14":-0.1614164412021637,"15":-0.16536661982536316,"16":0.007871987298130989,"17":-0.038088608533144,"18":-0.1956322193145752,"19":0.10230568051338196,"20":0.05057298764586449,"21":-0.021254774183034897,"22":0.055874988436698914,"23":0.17386899888515472,"24":-0.09216827899217606,"25":0.031225692480802536,"26":0.009251371957361698,"27":0.05790584906935692,"28":0.09424379467964172,"29":0.16791658103466034,"30":0.03868021070957184,"31":-0.06565598398447037,"32":-0.07996661961078644,"33":-0.047648835927248,"34":-0.11091265082359314,"35":0.0980624184012413,"36":-0.13458125293254852,"37":0.11289583891630173,"38":-0.07464591413736343,"39":-0.13439112901687622}},"12":{"bias":-0.0016959800850600004,"weights":{"0":0.19970948994159698,"1":-0.020147530362010002,"2":0.17784945666790009,"3":-0.14814412593841553,"4":-0.18704448640346527,"5":0.11192584037780762,"6":-0.14068011939525604,"7":0.03503977879881859,"8":-0.11550328880548477,"9":-0.002092224545776844,"10":-0.10565526783466339,"11":0.02093304693698883,"12":0.10517951846122742,"13":0.13246172666549683,"14":0.08465278893709183,"15":0.04063592851161957,"16":-0.05076310783624649,"17":0.155711367726326,"18":0.05704384297132492,"19":-0.125069260597229,"20":0.04046211764216423,"21":-0.12965375185012817,"22":0.09721942245960236,"23":0.0673874020576477,"24":0.1470416933298111,"25":-0.0035963996779173613,"26":-0.0713604986667633,"27":-0.09323451668024063,"28":-0.07950862497091293,"29":-0.02272517792880535,"30":0.10535798221826553,"31":0.06512422859668732,"32":0.10344074666500092,"33":-0.05284403637051582,"34":-0.041628122329711914,"35":-0.14271926879882812,"36":-0.19476017355918884,"37":0.14939332008361816,"38":-0.01989370957016945,"39":0.031980667263269424}},"13":{"bias":-0.04302222281694412,"weights":{"0":0.1940443515777588,"1":0.028998946771025658,"2":-0.05565575510263443,"3":0.12317757308483124,"4":-0.13417622447013855,"5":-0.1631939858198166,"6":-0.08775670826435089,"7":-0.14289358258247375,"8":-0.15505973994731903,"9":0.020502934232354164,"10":-0.15739805996418,"11":-0.14353281259536743,"12":0.07130568474531174,"13":-0.016990376636385918,"14":0.1502838283777237,"15":-0.120865598320961,"16":-0.0666792169213295,"17":0.03623642772436142,"18":-0.010210479609668255,"19":0.11829348653554916,"20":0.08236942440271378,"21":0.0652102380990982,"22":0.1927345246076584,"23":0.10115430504083633,"24":-0.012509808875620365,"25":-0.1027330607175827,"26":0.035225145518779755,"27":-0.11649738997220993,"28":-0.1064547747373581,"29":-0.17079319059848785,"30":0.17251858115196228,"31":0.020644113421440125,"32":0.1571146696805954,"33":-0.10530303418636322,"34":-0.021713273599743843,"35":-0.17890676856040955,"36":0.10613416135311127,"37":0.07454497367143631,"38":0.05528310686349869,"39":0.15698149800300598}},"14":{"bias":-0.09821771085262299,"weights":{"0":0.1489681452512741,"1":0.10502061992883682,"2":-0.19261202216148376,"3":-0.024591315537691116,"4":-0.02449788898229599,"5":0.009841419756412506,"6":0.04581110179424286,"7":-0.15406183898448944,"8":-0.06898108124732971,"9":0.08778075873851776,"10":-0.18633818626403809,"11":0.09137659519910812,"12":-0.09390226006507874,"13":-0.15068326890468597,"14":-0.19927914440631866,"15":-0.12308448553085327,"16":0.013870417140424252,"17":0.1105940118432045,"18":-0.030910437926650047,"19":0.09748998284339905,"20":0.06605369597673416,"21":0.10442933440208435,"22":-0.10075095295906067,"23":0.0760774314403534,"24":-0.18928396701812744,"25":0.12048985809087753,"26":0.17507526278495789,"27":0.14941978454589844,"28":-0.08389876037836075,"29":0.1319662183523178,"30":-0.07072630524635315,"31":-0.19596755504608154,"32":0.06021818891167641,"33":0.18780042231082916,"34":0.0347650907933712,"35":-0.034481048583984375,"36":0.04684688523411751,"37":-0.056335464119911194,"38":0.19489723443984985,"39":-0.12628157436847687}},"15":{"bias":-0.13478665053844452,"weights":{"0":0.11864552646875381,"1":0.08337518572807312,"2":0.1379428654909134,"3":0.1471712440252304,"4":-0.08564609289169312,"5":-0.13272300362586975,"6":-0.09749674052000046,"7":-0.1959262192249298,"8":-0.18096116185188293,"9":0.14004001021385193,"10":0.15935994684696198,"11":0.18701252341270447,"12":-0.18341922760009766,"13":0.18963126838207245,"14":-0.18039698898792267,"15":-0.11448012292385101,"16":-0.08042948693037033,"17":0.15797990560531616,"18":-0.1533355861902237,"19":0.11969014257192612,"20":0.010171239264309406,"21":-0.17359083890914917,"22":0.09877076745033264,"23":0.1797565221786499,"24":-0.09056185185909271,"25":0.11679599434137344,"26":-0.09662700444459915,"27":-0.19909155368804932,"28":-0.07779721915721893,"29":0.04529370367527008,"30":0.10673428326845169,"31":0.039660967886447906,"32":0.043022193014621735,"33":-0.04693959280848503,"34":-0.06163946911692619,"35":-0.18844102323055267,"36":0.07590474933385849,"37":0.13341090083122253,"38":-0.09475278109312057,"39":-0.17636001110076904}},"16":{"bias":0.07067497819662094,"weights":{"0":0.0365167073905468,"1":-0.04789280891418457,"2":0.09285089373588562,"3":-0.10087557137012482,"4":0.0223801638931036,"5":0.09799199551343918,"6":0.19938363134860992,"7":0.08319558948278427,"8":-0.06214446574449539,"9":0.03765365853905678,"10":-0.12834063172340393,"11":0.0623321570456028,"12":0.1195417046546936,"13":-0.061840955168008804,"14":0.19459064304828644,"15":0.1511436104774475,"16":0.18998068571090698,"17":0.0266861692070961,"18":-0.03065328486263752,"19":-0.07871214300394058,"20":0.021651681512594223,"21":-0.05923225358128548,"22":-0.08484503626823425,"23":0.1718079149723053,"24":0.005160195752978325,"25":0.08214005827903748,"26":0.10236220061779022,"27":-0.11921776086091995,"28":-0.004842540714889765,"29":0.16681331396102905,"30":0.19783784449100494,"31":0.18162578344345093,"32":-0.08688086271286011,"33":-0.12281186133623123,"34":0.15716102719306946,"35":0.010264793410897255,"36":-0.09610132873058319,"37":0.1497408002614975,"38":0.17295706272125244,"39":0.10188931971788406}},"17":{"bias":-0.13287493586540222,"weights":{"0":0.03751238435506821,"1":-0.03708390146493912,"2":0.13099832832813263,"3":0.023904427886009216,"4":-0.1683133989572525,"5":-0.18614204227924347,"6":-0.027177026495337486,"7":0.03831033036112785,"8":-0.01958625204861164,"9":-0.014470976777374744,"10":-0.16210946440696716,"11":-0.10485385358333588,"12":-0.18335995078086853,"13":-0.04548996314406395,"14":0.10895465314388275,"15":-0.16608387231826782,"16":-0.1879732757806778,"17":0.15472841262817383,"18":0.17127136886119843,"19":-0.10708244889974594,"20":0.09536444395780563,"21":-0.001382542890496552,"22":0.05263030156493187,"23":-0.19810853898525238,"24":-0.06712570041418076,"25":0.1117454320192337,"26":-0.11240703612565994,"27":-0.046220798045396805,"28":0.08389920741319656,"29":-0.09847409278154373,"30":-0.12369619309902191,"31":0.10941074788570404,"32":-0.07587748765945435,"33":-0.13491690158843994,"34":-0.09349001944065094,"35":-0.19423191249370575,"36":0.14113734662532806,"37":0.17027707397937775,"38":-0.06908748298883438,"39":-0.16275450587272644}},"18":{"bias":0.15035025775432587,"weights":{"0":-0.12546351552009583,"1":-0.15349769592285156,"2":0.09506022930145264,"3":-0.13389737904071808,"4":0.06859274953603745,"5":-0.11927467584609985,"6":0.17696906626224518,"7":-0.10163702815771103,"8":0.19907942414283752,"9":-0.15544219315052032,"10":-0.1776868849992752,"11":-0.16165657341480255,"12":0.12523625791072845,"13":-0.1737753003835678,"14":0.16693253815174103,"15":-0.12411733716726303,"16":-0.1521204113960266,"17":0.16278952360153198,"18":-0.1984153836965561,"19":0.10932093858718872,"20":0.1337951272726059,"21":0.11672715097665787,"22":0.1161002591252327,"23":0.17545394599437714,"24":0.15884341299533844,"25":-0.0595816932618618,"26":-0.12212855368852615,"27":0.04376187175512314,"28":-0.04549790173768997,"29":0.07631823420524597,"30":0.13558559119701385,"31":0.0249294675886631,"32":-0.04571610316634178,"33":-0.13188663125038147,"34":-0.1615021973848343,"35":-0.1794111132621765,"36":0.04334099590778351,"37":-0.03083501011133194,"38":-0.003190587041899562,"39":-0.07251328229904175}},"19":{"bias":0.008884825743734837,"weights":{"0":-0.0884820744395256,"1":0.026877952739596367,"2":0.02979070134460926,"3":0.16419267654418945,"4":-0.04292554408311844,"5":0.05843149125576019,"6":-0.12379971146583557,"7":0.06270509958267212,"8":0.1019689217209816,"9":-0.14134973287582397,"10":0.19135747849941254,"11":-0.07544762641191483,"12":0.15063469111919403,"13":0.050704196095466614,"14":-0.09479765594005585,"15":0.07933127135038376,"16":-0.18545274436473846,"17":0.06083598732948303,"18":0.008510692976415157,"19":0.13470029830932617,"20":0.15083779394626617,"21":-0.10778874903917313,"22":-0.015273061580955982,"23":-0.1463547945022583,"24":-0.12006065994501114,"25":-0.1782296597957611,"26":-0.09496209770441055,"27":0.14640700817108154,"28":0.17335732281208038,"29":-0.1714678704738617,"30":-0.14636407792568207,"31":0.10226178169250488,"32":-0.0696452260017395,"33":-0.19727608561515808,"34":0.004238644149154425,"35":-0.11916505545377731,"36":-0.022204697132110596,"37":-0.028933707624673843,"38":-0.09908793866634369,"39":0.0898081585764885}},"20":{"bias":0.00737337488681078,"weights":{"0":0.1958428919315338,"1":0.09374232590198517,"2":0.009785497561097145,"3":0.09188693016767502,"4":0.1863320767879486,"5":-0.13277839124202728,"6":0.0914267748594284,"7":-0.18071119487285614,"8":0.07039285451173782,"9":0.10257312655448914,"10":0.13135293126106262,"11":0.14401063323020935,"12":0.11980237066745758,"13":-0.17256799340248108,"14":-0.03385092318058014,"15":0.19455213844776154,"16":-0.00524872587993741,"17":0.19036762416362762,"18":0.031155971810221672,"19":-0.08515533804893494,"20":0.12575288116931915,"21":-0.06964770704507828,"22":0.14362622797489166,"23":-0.07570553570985794,"24":0.0557626336812973,"25":-0.05116411671042442,"26":-0.11234632879495621,"27":0.03495597466826439,"28":-0.03318062797188759,"29":0.11098504811525345,"30":-0.01454582903534174,"31":-0.05715909227728844,"32":0.031632982194423676,"33":-0.19582396745681763,"34":0.17037442326545715,"35":0.010591144673526287,"36":-0.08343805372714996,"37":0.18491850793361664,"38":0.04036599025130272,"39":-0.1109953224658966}},"21":{"bias":-0.0029686214402318,"weights":{"0":-0.11461550742387772,"1":0.06298177689313889,"2":-0.12138673663139343,"3":-0.1799113005399704,"4":-0.03715737536549568,"5":-0.1973181515932083,"6":-0.1357681155204773,"7":-0.060981012880802155,"8":-0.02112121507525444,"9":0.03887857124209404,"10":-0.181218683719635,"11":-0.003878883784636855,"12":0.12269958108663559,"13":-0.12559716403484344,"14":0.12559424340724945,"15":-0.10977298021316528,"16":0.18199549615383148,"17":-0.10582080483436584,"18":0.11224952340126038,"19":0.04899584874510765,"20":0.11577847599983215,"21":0.1869105100631714,"22":0.13914188742637634,"23":-0.18873180449008942,"24":0.10863281041383743,"25":-0.18836165964603424,"26":-0.03281165659427643,"27":0.13197901844978333,"28":0.14731618762016296,"29":0.18507619202136993,"30":0.18859098851680756,"31":-0.033518582582473755,"32":0.04628897085785866,"33":-0.002315400168299675,"34":-0.1085757315158844,"35":-0.10853936523199081,"36":-0.14413107931613922,"37":-0.03887736797332764,"38":-0.11233241856098175,"39":0.0646175742149353}},"22":{"bias":-0.021410774439573288,"weights":{"0":0.05594446137547493,"1":-0.02274329774081707,"2":0.08135034888982773,"3":0.119367316365242,"4":-0.17523863911628723,"5":-0.016095271334052086,"6":-0.0930083617568016,"7":-0.10690397769212723,"8":0.04455113038420677,"9":0.005945832468569279,"10":0.06564272195100784,"11":0.19183577597141266,"12":-0.009637586772441864,"13":-0.11845666170120239,"14":0.14540337026119232,"15":0.07023102045059204,"16":-0.18704240024089813,"17":-0.16743236780166626,"18":0.003129321150481701,"19":-0.0959792211651802,"20":-0.12131491303443909,"21":-0.11610563844442368,"22":-0.027750376611948013,"23":-0.006972688250243664,"24":0.046495843678712845,"25":0.17111292481422424,"26":0.028362363576889038,"27":0.09190591424703598,"28":-0.13937731087207794,"29":-0.0075487662106752396,"30":-0.05062365531921387,"31":0.18341220915317535,"32":0.07787566632032394,"33":0.11365082859992981,"34":-0.05522450804710388,"35":-0.148951455950737,"36":0.1385732889175415,"37":0.10499382764101028,"38":-0.0544150210916996,"39":-0.06660515069961548}},"23":{"bias":0.011541628278791904,"weights":{"0":0.19379644095897675,"1":0.030324136838316917,"2":-0.06129411607980728,"3":-0.18835054337978363,"4":0.18478496372699738,"5":-0.033205240964889526,"6":0.1928349733352661,"7":-0.196161150932312,"8":0.02043769136071205,"9":0.12027221918106079,"10":0.015579499304294586,"11":-0.040538541972637177,"12":0.07328158617019653,"13":-0.15470224618911743,"14":-0.13843652606010437,"15":0.06214674189686775,"16":0.01237273309379816,"17":0.1588417887687683,"18":0.11009510606527328,"19":-0.1042986810207367,"20":-0.07035824656486511,"21":-0.06992048025131226,"22":0.09611548483371735,"23":0.07323083281517029,"24":0.01447243057191372,"25":0.1777537763118744,"26":-0.15472252666950226,"27":0.07595903426408768,"28":0.15299397706985474,"29":-0.12835700809955597,"30":-0.009047283791005611,"31":-0.04820212349295616,"32":0.1428150087594986,"33":0.11744501441717148,"34":0.17516779899597168,"35":-0.13551391661167145,"36":-0.11840686947107315,"37":-0.03385169804096222,"38":-0.15666526556015015,"39":-0.07767122983932495}},"24":{"bias":-0.04442084953188896,"weights":{"0":-0.16352424025535583,"1":0.023555032908916473,"2":-0.06807137280702591,"3":0.0773610770702362,"4":-0.050271905958652496,"5":0.02657296694815159,"6":-0.007907262071967125,"7":0.07875115424394608,"8":-0.05451199784874916,"9":0.005112143699079752,"10":-0.06556985527276993,"11":-0.15057960152626038,"12":0.06751932203769684,"13":0.1921999156475067,"14":-0.14184807240962982,"15":0.17087684571743011,"16":0.17170745134353638,"17":-0.0550493560731411,"18":-0.04731198400259018,"19":0.18021482229232788,"20":-0.05947595462203026,"21":-0.1440097987651825,"22":-0.10391706228256226,"23":0.06203373521566391,"24":-0.06593972444534302,"25":-0.017711184918880463,"26":-0.08639086037874222,"27":-0.10133914649486542,"28":0.09038366377353668,"29":-0.08878208696842194,"30":-0.1005345955491066,"31":0.04594401642680168,"32":0.12815482914447784,"33":0.15051411092281342,"34":-0.12903118133544922,"35":0.028027933090925217,"36":-0.04988585039973259,"37":-0.17549094557762146,"38":0.15277855098247528,"39":-0.17724180221557617}},"25":{"bias":-0.14893509447574615,"weights":{"0":0.03542296588420868,"1":0.061036787927150726,"2":-0.1994248777627945,"3":-0.11149995028972626,"4":0.16571921110153198,"5":-0.17507067322731018,"6":-0.027747176587581635,"7":-0.1101110577583313,"8":0.1477629393339157,"9":-0.19607077538967133,"10":0.13403478264808655,"11":0.11392079293727875,"12":0.02770102210342884,"13":0.013093414716422558,"14":0.1567787230014801,"15":-0.16078388690948486,"16":-0.16217584908008575,"17":-0.18826857209205627,"18":-0.1823093444108963,"19":-0.14390768110752106,"20":-0.14532484114170074,"21":-0.14628523588180542,"22":0.1384143829345703,"23":0.004898856859654188,"24":0.15744398534297943,"25":0.16812442243099213,"26":0.03352368250489235,"27":0.08026212453842163,"28":-0.020725615322589874,"29":-0.11787819862365723,"30":-0.08973517268896103,"31":-0.13095973432064056,"32":-0.061105385422706604,"33":-0.09365061670541763,"34":0.12037600576877594,"35":-0.08590914309024811,"36":0.011889839544892311,"37":-0.17805959284305573,"38":-0.1436871737241745,"39":0.0566793717443943}},"26":{"bias":-0.01833747699856758,"weights":{"0":-0.08552218228578568,"1":-0.03177006170153618,"2":-0.06528923660516739,"3":-0.009767042472958565,"4":0.029254328459501266,"5":0.0863053947687149,"6":-0.048869550228118896,"7":0.19365277886390686,"8":-0.18396250903606415,"9":0.06877786666154861,"10":-0.03881407901644707,"11":-0.037733666598796844,"12":-0.15301494300365448,"13":-0.09971851110458374,"14":0.05527334287762642,"15":0.1340084671974182,"16":0.13771560788154602,"17":0.16535167396068573,"18":-0.08209078758955002,"19":0.04691663756966591,"20":0.13909034430980682,"21":-0.02244047075510025,"22":0.01675773225724697,"23":-0.02527119778096676,"24":-0.17052994668483734,"25":-0.06475295126438141,"26":-0.18068021535873413,"27":-0.15312041342258453,"28":0.007538394536823034,"29":0.01663093827664852,"30":0.19033551216125488,"31":-0.1595592200756073,"32":-0.09779036045074463,"33":-0.04755481705069542,"34":-0.11447253078222275,"35":0.08888062834739685,"36":0.1712666153907776,"37":-0.13128340244293213,"38":0.16151653230190277,"39":0.10769472271203995}},"27":{"bias":0.17920024693012238,"weights":{"0":-0.1475425660610199,"1":-0.0104397963732481,"2":-0.14818838238716125,"3":-0.07160396128892899,"4":-0.07232913374900818,"5":-0.1885305941104889,"6":-0.0025852127000689507,"7":-0.018822334706783295,"8":-0.10459064692258835,"9":0.1832589954137802,"10":-0.018949568271636963,"11":-0.181832954287529,"12":0.047733016312122345,"13":0.09624262899160385,"14":0.045083511620759964,"15":0.15457743406295776,"16":-0.13227923214435577,"17":-0.117397740483284,"18":-0.10310883074998856,"19":-0.06416953355073929,"20":-0.19187358021736145,"21":0.16251787543296814,"22":-0.10275731980800629,"23":0.1681097149848938,"24":-0.19506655633449554,"25":-0.14073076844215393,"26":0.10476364940404892,"27":0.05696212127804756,"28":-0.10944055020809174,"29":0.16240760684013367,"30":0.10903888195753098,"31":-0.06463225185871124,"32":0.05504189431667328,"33":-0.027369661256670952,"34":0.02249699831008911,"35":-0.15968433022499084,"36":0.05868316814303398,"37":0.06333480030298233,"38":-0.10284584760665894,"39":-0.15964682400226593}},"28":{"bias":0.1913960725069046,"weights":{"0":-0.040795646607875824,"1":-0.1552966833114624,"2":-0.030027052387595177,"3":-0.05522460117936134,"4":0.010800872929394245,"5":-0.002722089644521475,"6":-0.11291766911745071,"7":0.16202272474765778,"8":0.1863783448934555,"9":0.04846556484699249,"10":-0.1230333149433136,"11":0.16660061478614807,"12":0.06510192900896072,"13":-0.052989859133958817,"14":0.07087256014347076,"15":0.1730365753173828,"16":-0.053026553243398666,"17":0.14894993603229523,"18":0.01307687908411026,"19":-0.12221062928438187,"20":0.1882580816745758,"21":-0.16504645347595215,"22":0.09471084177494049,"23":-0.1873568296432495,"24":-0.19486600160598755,"25":0.16455964744091034,"26":0.16237583756446838,"27":-0.05474599078297615,"28":0.04918909817934036,"29":-0.15781846642494202,"30":-0.0034538761246949434,"31":0.026439236477017403,"32":-0.031053613871335983,"33":0.1165073961019516,"34":0.05888194963335991,"35":0.1907445192337036,"36":0.007967369630932808,"37":0.09362348169088364,"38":-0.062088899314403534,"39":-0.06477633863687515}},"29":{"bias":-0.15234340727329254,"weights":{"0":-0.14389513432979584,"1":0.06790865957736969,"2":-0.15454408526420593,"3":0.1089862585067749,"4":0.14334774017333984,"5":-0.18178920447826385,"6":-0.19005848467350006,"7":0.1727738380432129,"8":0.03598611429333687,"9":-0.1507282555103302,"10":0.11963736265897751,"11":0.01349751278758049,"12":0.18764628469944,"13":0.062069121748209,"14":-0.17241652309894562,"15":-0.1247672289609909,"16":-0.040933072566986084,"17":0.1786014437675476,"18":0.13051754236221313,"19":0.15389803051948547,"20":0.1349494457244873,"21":-0.13631051778793335,"22":0.18005481362342834,"23":0.03642388805747032,"24":-0.17687676846981049,"25":0.06298795342445374,"26":0.027795610949397087,"27":-0.16756758093833923,"28":-0.04699788615107536,"29":-0.19509847462177277,"30":-0.13798107206821442,"31":0.0008827038109302521,"32":0.1938418596982956,"33":-0.018387172371149063,"34":-0.06872831284999847,"35":-0.04611285775899887,"36":0.08442123234272003,"37":0.09494998306035995,"38":-0.1494133323431015,"39":0.12796981632709503}},"30":{"bias":-0.05999533087015152,"weights":{"0":-0.04723405838012695,"1":0.009171782061457634,"2":0.1811504364013672,"3":0.07719635218381882,"4":-0.13855603337287903,"5":0.06346870958805084,"6":-0.15985605120658875,"7":0.039561040699481964,"8":-0.06596246361732483,"9":0.055925581604242325,"10":-0.18362703919410706,"11":-0.15447193384170532,"12":-0.08435671776533127,"13":-0.14261801540851593,"14":-0.12237055599689484,"15":0.10667189955711365,"16":0.023719094693660736,"17":-0.19791848957538605,"18":0.03715673089027405,"19":0.09344759583473206,"20":-0.0827963650226593,"21":-0.09192224591970444,"22":0.007312228437513113,"23":0.0712873637676239,"24":-0.12176232039928436,"25":-0.02673983760178089,"26":0.07629379630088806,"27":-0.06923534721136093,"28":-0.164388045668602,"29":0.05125698447227478,"30":0.14026424288749695,"31":-0.17882397770881653,"32":-0.15457049012184143,"33":-0.13023994863033295,"34":-0.06415355950593948,"35":0.00031995668541640043,"36":0.012735813856124878,"37":0.005735995713621378,"38":-0.0100435521453619,"39":0.09259749948978424}},"31":{"bias":-0.05488872155547142,"weights":{"0":0.1619056761264801,"1":-0.023772327229380608,"2":-0.008356478996574879,"3":0.07165893167257309,"4":-0.06888101249933243,"5":-0.18096505105495453,"6":0.18640126287937164,"7":0.1595560610294342,"8":0.11285332590341568,"9":0.15842555463314056,"10":0.0747128278017044,"11":0.013262022286653519,"12":-0.005885536316782236,"13":-0.17912249267101288,"14":0.08032368123531342,"15":0.17796026170253754,"16":0.05891084298491478,"17":0.00427660159766674,"18":-0.14529141783714294,"19":0.03767520189285278,"20":-0.14842082560062408,"21":-0.15716592967510223,"22":-0.13179631531238556,"23":0.08149367570877075,"24":-0.17142899334430695,"25":-0.17100998759269714,"26":-0.006223893724381924,"27":0.1883547604084015,"28":-0.011520100757479668,"29":-0.18152081966400146,"30":0.044124409556388855,"31":0.15037815272808075,"32":-0.13853195309638977,"33":-0.015096106566488743,"34":-0.12253549695014954,"35":0.13980448246002197,"36":0.09085404127836227,"37":-0.10060484707355499,"38":0.08944336324930191,"39":0.10160457342863083}},"32":{"bias":0.1862046718597412,"weights":{"0":0.13382548093795776,"1":0.18038266897201538,"2":-0.13070087134838104,"3":-0.15830780565738678,"4":0.08628871291875839,"5":0.15993930399417877,"6":0.18397748470306396,"7":0.19137434661388397,"8":0.1887831687927246,"9":-0.08496598154306412,"10":0.09152784198522568,"11":0.02295377291738987,"12":-0.034537967294454575,"13":-0.18911229074001312,"14":-0.09302691370248795,"15":-0.040965598076581955,"16":0.0952439159154892,"17":-0.1723262369632721,"18":0.09771156311035156,"19":-0.09725689888000488,"20":-0.1000407338142395,"21":-0.1881037950515747,"22":0.07835190743207932,"23":0.18367859721183777,"24":-0.07543353736400604,"25":-0.1339055746793747,"26":-0.012581154704093933,"27":0.03330177068710327,"28":0.1951497197151184,"29":0.10401352494955063,"30":-0.08246725052595139,"31":-0.13787934184074402,"32":-0.12804025411605835,"33":0.04861481487751007,"34":0.0830472931265831,"35":0.02141779288649559,"36":-0.09250251948833466,"37":-0.026086490601301193,"38":0.17678269743919373,"39":0.07030893117189407}},"33":{"bias":-0.16451683640480042,"weights":{"0":0.01504167728126049,"1":0.12138047069311142,"2":-0.08000688254833221,"3":0.06890445947647095,"4":0.03375532478094101,"5":0.15390019118785858,"6":-0.0785704031586647,"7":-0.15214107930660248,"8":-0.17349247634410858,"9":-0.13694700598716736,"10":0.08985407650470734,"11":0.039563942700624466,"12":0.10525421798229218,"13":-0.19427859783172607,"14":0.054422635585069656,"15":0.043833792209625244,"16":-0.02986815758049488,"17":-0.03516823798418045,"18":-0.11150797456502914,"19":-0.00824064388871193,"20":0.17487528920173645,"21":-0.011028912849724293,"22":-0.12852102518081665,"23":0.1458623707294464,"24":-0.10880814492702484,"25":0.14372049272060394,"26":0.034656498581171036,"27":0.1896502822637558,"28":-0.10126841813325882,"29":-0.06318561732769012,"30":0.06272333860397339,"31":-0.07529880106449127,"32":-0.16312022507190704,"33":0.02712649293243885,"34":-0.11164294183254242,"35":0.07702542096376419,"36":0.07936712354421616,"37":-0.04694698378443718,"38":0.15654940903186798,"39":-0.03561105951666832}},"34":{"bias":-0.16170740127563477,"weights":{"0":-0.1319456696510315,"1":-0.04104398936033249,"2":-0.19080427289009094,"3":-0.16230623424053192,"4":-0.19790391623973846,"5":-0.19794845581054688,"6":-0.13557566702365875,"7":-0.11533527076244354,"8":-0.06246999278664589,"9":0.07816633582115173,"10":-0.022433824837207794,"11":0.05256501957774162,"12":-0.19363342225551605,"13":0.11823618412017822,"14":-0.06306664645671844,"15":-0.13999058306217194,"16":-0.0984896570444107,"17":0.1971716284751892,"18":-0.15412384271621704,"19":-0.04960291460156441,"20":0.14257605373859406,"21":-0.16461636126041412,"22":0.13436228036880493,"23":-0.02661844901740551,"24":0.007424890995025635,"25":-0.09728953242301941,"26":-0.025486819446086884,"27":-0.06505735218524933,"28":0.11885595321655273,"29":-0.08682414144277573,"30":0.1032026931643486,"31":0.1771184504032135,"32":0.10767559707164764,"33":-0.06594789773225784,"34":-0.19494439661502838,"35":0.08378510177135468,"36":0.1531824767589569,"37":-0.19170035421848297,"38":-0.03899557515978813,"39":0.1418386846780777}},"35":{"bias":0.014883304946124554,"weights":{"0":0.18750730156898499,"1":-0.06370561569929123,"2":0.1541193127632141,"3":-0.04795528203248978,"4":-0.05724788457155228,"5":-0.012433278374373913,"6":0.1777685582637787,"7":0.15314890444278717,"8":0.12238205969333649,"9":-0.059477973729372025,"10":0.025540830567479134,"11":0.16343170404434204,"12":0.009538603015244007,"13":0.17346513271331787,"14":-0.025110339745879173,"15":-0.1788465678691864,"16":0.13699544966220856,"17":-0.04332038015127182,"18":0.08131899684667587,"19":-0.013520448468625546,"20":-0.16613808274269104,"21":-0.18780024349689484,"22":-0.07570522278547287,"23":0.04983071610331535,"24":-0.19735509157180786,"25":-0.1673496961593628,"26":0.09577725827693939,"27":0.12343799322843552,"28":0.17975743114948273,"29":0.09951841831207275,"30":0.09494132548570633,"31":0.1047808974981308,"32":-0.1697477549314499,"33":-0.0697399377822876,"34":0.0758916363120079,"35":0.04767272248864174,"36":-0.029687153175473213,"37":0.06487909704446793,"38":0.10208263248205185,"39":0.11455252766609192}},"36":{"bias":-0.18621385097503662,"weights":{"0":0.12979555130004883,"1":-0.09029119461774826,"2":-0.17677618563175201,"3":0.05847768485546112,"4":-0.0420139878988266,"5":0.034546248614788055,"6":0.18594340980052948,"7":-0.12717269361019135,"8":0.1233300268650055,"9":0.1747712641954422,"10":-0.04414128139615059,"11":0.10610939562320709,"12":0.19822447001934052,"13":-0.0672379806637764,"14":-0.15162478387355804,"15":0.004436581861227751,"16":0.013522009365260601,"17":0.1119382306933403,"18":-0.06291813403367996,"19":-0.0743713527917862,"20":0.09563249349594116,"21":0.1609826534986496,"22":0.028426922857761383,"23":-0.13098695874214172,"24":0.023028383031487465,"25":-0.0012253825552761555,"26":0.16753458976745605,"27":-0.06935139745473862,"28":-0.12332093715667725,"29":0.03411860391497612,"30":-0.12175347656011581,"31":0.15619078278541565,"32":-0.07816898077726364,"33":-0.10041090846061707,"34":-0.19909369945526123,"35":0.05456264689564705,"36":-0.1975218951702118,"37":-0.05280432850122452,"38":0.13341748714447021,"39":0.1466996818780899}},"37":{"bias":-0.11712013930082321,"weights":{"0":0.06786902248859406,"1":0.1176445335149765,"2":-0.09246896952390671,"3":0.1347285509109497,"4":0.15052278339862823,"5":-0.016072213649749756,"6":0.19280798733234406,"7":0.1918424367904663,"8":0.009862400591373444,"9":-0.0749073401093483,"10":-0.0645577684044838,"11":-0.0685206726193428,"12":-0.1247335821390152,"13":-0.15751469135284424,"14":-0.06362440437078476,"15":0.114603690803051,"16":0.11265398561954498,"17":-0.1960303783416748,"18":0.16151052713394165,"19":-0.1892043650150299,"20":0.1876218318939209,"21":-0.18434719741344452,"22":-0.13998852670192719,"23":0.05808284506201744,"24":0.0050573828630149364,"25":0.17253492772579193,"26":-0.148373544216156,"27":-0.09026210010051727,"28":-0.08591049909591675,"29":-0.11279286444187164,"30":0.061331551522016525,"31":0.1860288828611374,"32":-0.008761731907725334,"33":-0.17903688549995422,"34":0.0037538509350270033,"35":0.10965978354215622,"36":0.079110287129879,"37":-0.16352370381355286,"38":0.16750404238700867,"39":-0.18141959607601166}},"38":{"bias":0.17445974051952362,"weights":{"0":0.17914409935474396,"1":0.15920788049697876,"2":-0.0690428614616394,"3":-0.18459521234035492,"4":-0.08820189535617828,"5":0.09644689410924911,"6":0.057221669703722,"7":-0.10076617449522018,"8":-0.018311360850930214,"9":0.05741824954748154,"10":0.06531884521245956,"11":0.1026855856180191,"12":0.0716860219836235,"13":-0.12022841721773148,"14":-0.17155472934246063,"15":-0.10944866389036179,"16":-0.11680931597948074,"17":-0.0447705052793026,"18":-0.07563714683055878,"19":-0.16990326344966888,"20":-0.08409690111875534,"21":0.07986363768577576,"22":0.14643388986587524,"23":-0.09446582198143005,"24":0.15755155682563782,"25":-0.056427717208862305,"26":-0.09012613445520401,"27":-0.031360700726509094,"28":0.18479499220848083,"29":0.12600170075893402,"30":-0.02892516553401947,"31":-0.18893805146217346,"32":-0.034868430346250534,"33":0.15593893826007843,"34":-0.009364751167595387,"35":-0.023583177477121353,"36":0.16030339896678925,"37":-0.04706773906946182,"38":0.08633314073085785,"39":-0.0513225793838501}},"39":{"bias":0.1837586909532547,"weights":{"0":-0.06935631483793259,"1":0.12545403838157654,"2":0.10453645139932632,"3":0.0035559923853725195,"4":-0.013216246850788593,"5":0.0523839145898819,"6":-0.1349227875471115,"7":0.17395955324172974,"8":0.11485271900892258,"9":0.03728574141860008,"10":0.017668763175606728,"11":-0.11923722177743912,"12":0.1337003856897354,"13":-0.0892200618982315,"14":0.02155490405857563,"15":-0.16444474458694458,"16":-0.164061039686203,"17":-0.170609712600708,"18":-0.16543956100940704,"19":-0.0872633308172226,"20":-0.036878861486911774,"21":-0.07853853702545166,"22":-0.1699928641319275,"23":-0.06609637290239334,"24":0.17796240746974945,"25":0.17656956613063812,"26":0.136374369263649,"27":-0.16549620032310486,"28":-0.12337017059326172,"29":-0.08335144817829132,"30":0.1530003398656845,"31":-0.15209509432315826,"32":0.03296000510454178,"33":-0.06546808034181595,"34":0.14399361610412598,"35":-0.09536439180374146,"36":-0.1724063605070114,"37":-0.12343600392341614,"38":-0.06712009757757187,"39":-0.014581962488591671}}},{"0":{"bias":-0.11898603290319443,"weights":{"0":-0.07806666940450668,"1":0.0707213282585144,"2":0.14609672129154205,"3":-0.0886135920882225,"4":0.044730331748723984,"5":0.11336097866296768,"6":0.17918112874031067,"7":-0.18987469375133514,"8":-0.1329563409090042,"9":-0.07063142955303192,"10":-0.13772042095661163,"11":-0.18778197467327118,"12":-0.07289455085992813,"13":-0.19701097905635834,"14":0.161115825176239,"15":0.13188786804676056,"16":-0.1312427520751953,"17":-0.04781600832939148,"18":0.0043050674721598625,"19":-0.02270795963704586,"20":0.0536264106631279,"21":0.18585354089736938,"22":0.04737657681107521,"23":0.1738426387310028,"24":0.036483284085989,"25":-0.019503973424434662,"26":-0.1964624971151352,"27":0.12966202199459076,"28":0.15823589265346527,"29":0.09432051330804825,"30":-0.03726471960544586,"31":0.10702939331531525,"32":-0.10317756980657578,"33":-0.13891702890396118,"34":0.11476773023605347,"35":0.01552330981940031,"36":0.15314391255378723,"37":0.008261581882834435,"38":0.08686374872922897,"39":0.15622209012508392}},"1":{"bias":0.12874062359333038,"weights":{"0":-0.12246573716402054,"1":-0.0966654047369957,"2":-0.0467953160405159,"3":-0.04110964387655258,"4":-0.18879027664661407,"5":0.1704181432723999,"6":0.06489535421133041,"7":-0.16973112523555756,"8":-0.16634146869182587,"9":0.1736513078212738,"10":0.026907797902822495,"11":0.13009412586688995,"12":-0.05252460762858391,